,0,1,2,3,4,5,6,7,8,9,10,11,12,13,14,15,16,17,18,19,20,21,22,23,24,25,26,27,28,29,30,31,32,33,34,35,36,37,38,39,40,41,42,43,44,45,46,47,48,49,50,51,52,53,54,55,56,57,58,59,60,61,62,63,64,65,66,67,68,69,70,71,72,73,74,75,76,77,78,79,80,81,82,83,84,85,86,87,88,89,90,91,92,93,94,95,96,97,98,99,100,101,102,103,104,105,106,107,108,109,110,111,112,113,114,115,116,117,118,119,120,121,122,123,124,125,126,127,128,129,130,131,132,133,134,135,136,137,138,139,140,141,142,143,144,145,146,147,148,149,150,151,152,153,154,155,156,157,158,159,160,161,162,163,164,165,166,167,168,169,170,171,172,173,174,175,176,177,178,179,180,181,182,183,184,185,186,187,188,189,190,191,192,193,194,195,196,197,198,199,200,201,202,203,204,205,206,207,208,209,210,211,212,213,214,215,216,217,218,219,220,221,222,223,224,225,226,227,228,229,230,231,232,233,234,235,236,237,238,239,240,241,242,243,244,245,246,247,248,249,250,251,252,253,254,255,256,257,258,259,260,261,262,263,264,265,266,267,268,269,270,271,272,273,274,275,276,277,278,279,280,281,282,283,284,285,286,287,288,289,290,291,292,293,294,295,296,297,298,299,300,301,302,303,304,305,306,307,308,309,310,311,312,313,314,315,316,317,318,319,320,321,322,323,324,325,326,327,328,329,330,331,332,333,334,335,336,337,338,339,340,341,342,343,344,345,346,347,348,349,350,351,352,353,354,355,356,357,358,359,360,361,362,363,364,365,366,367,368,369,370,371,372,373,374,375,376,377,378,379,380,381,382,383,384,385,386,387,388,389,390,391,392,393,394,395,396,397,398,399,400,401,402,403,404,405,406,407,408,409,410,411,412,413,414,415,416,417,418,419,420,421,422,423,424,425,426,427,428,429,430,431,432,433,434,435,436,437,438,439,440,441,442,443,444,445,446,447,448,449,450,451,452,453,454,455,456,457,458,459,460,461,462,463,464,465,466,467,468,469,470,471,472,473,474,475,476,477,478,479,480,481,482,483,484,485,486,487,488,489,490,491,492,493,494,495,496,497,498,499,500,501,502,503,504,505,506,507,508,509,510,511,512,513,514,515,516,517,518,519,520,521,522,523,524,525,526,527,528,529,530,531,532,533,534,535,536,537,538,539,540,541,542,543,544,545,546,547,548,549,550,551,552,553,554,555,556,557,558,559,560,561,562,563,564,565,566,567,568,569,570,571,572,573,574,575,576,577,578,579,580,581,582,583,584,585,586,587,588,589,590,591,592,593,594,595,596,597,598,599,600,601,602,603,604,605,606,607,608,609,610,611,612,613,614,615,616,617,618,619,620,621,622,623,624,625,626,627,628,629,630,631,632,633,634,635,636,637,638,639,640,641,642,643,644,645,646,647,648,649,650,651,652,653,654,655,656,657,658,659,660,661,662,663,664,665,666,667,668,669,670,671,672,673,674,675,676,677,678,679,680,681,682,683,684,685,686,687,688,689,690,691,692,693,694,695,696,697,698,699,700,701,702,703,704,705,706,707,708,709,710,711,712,713,714,715,716,717,718,719,720,721,722,723,724,725,726,727,728,729,730,731,732,733,734,735,736,737,738,739,740,741,742,743,744,745,746,747,748,749,750,751,752,753,754,755,756,757,758,759,760,761,762,763,764,765,766,767,768,769,770,771,772,773,774,775,776,777,778,779,780,781,782,783,784,785,786,787,788,789,790,791,792,793,794,795,796,797,798,799,800,801,802,803,804,805,806,807,808,809,810,811,812,813,814,815,816,817,818,819,820,821,822,823,824,825,826,827,828,829,830,831,832,833,834,835,836,837,838,839,840,841,842,843,844,845,846,847,848,849,850,851,852,853,854,855,856,857,858,859,860,861,862,863,864,865,866,867,868,869,870,871,872,873,874,875,876,877,878,879,880,881,882,883,884,885,886,887,888,889,890,891,892,893,894,895,896,897,898,899,900,901,902,903,904,905,906,907,908,909,910,911,912,913,914,915,916,917,918,919,920,921,922,923,924,925,926,927,928,929,930,931,932,933,934,935,936,937,938,939,940,941,942,943,944,945,946,947,948,949,950,951,952,953,954,955,956,957,958,959,960,961,962,963,964,965,966,967,968,969,970,971,972,973,974,975,976,977,978,979,980,981,982,983,984,985,986,987,988,989,990,991,992,993,994,995,996,997,998,999,1000,1001,1002,1003,1004,1005,1006,1007,1008,1009,1010,1011,1012,1013,1014,1015,1016,1017,1018,1019,1020,1021,1022,1023,1024,1025,1026,1027,1028,1029,1030,1031,1032,1033,1034,1035,1036,1037,1038,1039,1040,1041,1042,1043,1044,1045,1046,1047,1048,1049,1050,1051,1052,1053,1054,1055,1056,1057,1058,1059,1060,1061,1062,1063,1064,1065,1066,1067,1068,1069,1070,1071,1072,1073,1074,1075,1076,1077,1078,1079,1080,1081,1082,1083,1084,1085,1086,1087,1088,1089,1090,1091,1092,1093,1094,1095,1096,1097,1098,1099,1100,1101,1102,1103,1104,1105,1106,1107,1108,1109,1110,1111,1112,1113,1114,1115,1116,1117,1118,1119,1120,1121,1122,1123,1124,1125,1126,1127,1128,1129,1130,1131,1132,1133,1134,1135,1136,1137,1138,1139,1140,1141,1142,1143,1144,1145,1146,1147,1148,1149,1150,1151,1152,1153,1154,1155,1156,1157,1158,1159,1160,1161,1162,1163,1164,1165,1166,1167,1168,1169,1170,1171,1172,1173,1174,1175,1176,1177,1178,1179,1180,1181,1182,1183,1184,1185,1186,1187,1188,1189,1190,1191,1192,1193,1194,1195,1196,1197,1198,1199,1200,1201,1202,1203,1204,1205,1206,1207,1208,1209,1210,1211,1212,1213,1214,1215,1216,1217,1218,1219,1220,1221,1222,1223,1224,1225,1226,1227,1228,1229,1230,1231,1232,1233,1234,1235,1236,1237,1238,1239,1240,1241,1242,1243,1244,1245,1246,1247,1248,1249,1250,1251,1252,1253,1254,1255,1256,1257,1258,1259,1260,1261,1262,1263,1264,1265,1266,1267,1268,1269,1270,1271,1272,1273,1274,1275,1276,1277,1278,1279,1280,1281,1282,1283,1284,1285,1286,1287,1288,1289,1290,1291,1292,1293,1294,1295,1296,1297,1298,1299,1300,1301,1302,1303,1304,1305,1306,1307,1308,1309,1310,1311,1312,1313,1314,1315,1316,1317,1318,1319,1320,1321,1322,1323,1324,1325,1326,1327,1328,1329,1330,1331,1332,1333,1334,1335,1336,1337,1338,1339,1340,1341,1342,1343,1344,1345,1346,1347,1348,1349,1350,1351,1352,1353,1354,1355,1356,1357,1358,1359,1360,1361,1362,1363,1364,1365,1366,1367,1368,1369,1370,1371,1372,1373,1374,1375,1376,1377,1378,1379,1380,1381,1382,1383,1384,1385,1386,1387,1388,1389,1390,1391,1392,1393,1394,1395,1396,1397,1398,1399,1400,1401,1402,1403,1404,1405,1406,1407,1408,1409,1410,1411,1412,1413,1414,1415,1416,1417,1418,1419,1420,1421,1422,1423,1424,1425,1426,1427,1428,1429,1430,1431,1432,1433,1434,1435,1436,1437,1438,1439,1440,1441,1442,1443,1444,1445,1446,1447,1448,1449,1450,1451,1452,1453,1454,1455,1456,1457,1458,1459,1460,1461,1462,1463,1464,1465,1466,1467,1468,1469,1470,1471,1472,1473,1474,1475,1476,1477,1478,1479,1480,1481,1482,1483,1484,1485,1486,1487,1488,1489,1490,1491,1492,1493,1494,1495,1496,1497,1498,1499,1500,1501,1502,1503,1504,1505,1506,1507,1508,1509,1510,1511,1512,1513,1514,1515,1516,1517,1518,1519,1520,1521,1522,1523,1524,1525,1526,1527,1528,1529,1530,1531,1532,1533,1534,1535,1536,1537,1538,1539,1540,1541,1542,1543,1544,1545,1546,1547,1548,1549,1550,1551,1552,1553,1554,1555,1556,1557,1558,1559,1560,1561,1562,1563,1564,1565,1566,1567,1568,1569,1570,1571,1572,1573,1574,1575,1576,1577,1578,1579,1580,1581,1582,1583,1584,1585,1586,1587,1588,1589,1590,1591,1592,1593,1594,1595,1596,1597,1598,1599,1600,1601,1602,1603,1604,1605,1606,1607,1608,1609,1610,1611,1612,1613,1614,1615,1616,1617,1618,1619,1620,1621,1622,1623,1624,1625,1626,1627,1628,1629,1630,1631,1632,1633,1634,1635,1636,1637,1638,1639,1640,1641,1642,1643,1644,1645,1646,1647,1648,1649,1650,1651,1652,1653,1654,1655,1656,1657,1658,1659,1660,1661,1662,1663,1664,1665,1666,1667,1668,1669,1670,1671,1672,1673,1674,1675,1676,1677,1678,1679,1680,1681,1682,1683,1684,1685,1686,1687,1688,1689,1690,1691,1692,1693,1694,1695,1696,1697,1698,1699,1700,1701,1702,1703,1704,1705,1706,1707,1708,1709,1710,1711,1712,1713,1714,1715,1716,1717,1718,1719,1720,1721,1722,1723,1724,1725,1726,1727,1728,1729,1730,1731,1732,1733,1734,1735,1736,1737,1738,1739,1740,1741,1742,1743,1744,1745,1746,1747,1748,1749,1750,1751,1752,1753,1754,1755,1756,1757,1758,1759,1760,1761,1762,1763,1764,1765,1766,1767,1768,1769,1770,1771,1772,1773,1774,1775,1776,1777,1778,1779,1780,1781,1782,1783,1784,1785,1786,1787,1788,1789,1790,1791,1792,1793,1794,1795,1796,1797,1798,1799,1800,1801,1802,1803,1804,1805,1806,1807,1808,1809,1810,1811,1812,1813,1814,1815,1816,1817,1818,1819,1820,1821,1822,1823,1824,1825,1826,1827,1828,1829,1830,1831,1832,1833,1834,1835,1836,1837,1838,1839,1840,1841,1842,1843,1844,1845,1846,1847,1848,1849,1850,1851,1852,1853,1854,1855,1856,1857,1858,1859,1860,1861,1862,1863,1864,1865,1866,1867,1868,1869,1870,1871,1872,1873,1874,1875,1876,1877,1878,1879,1880,1881,1882,1883,1884,1885,1886,1887,1888,1889,1890,1891,1892,1893,1894,1895,1896,1897,1898,1899,1900,1901,1902,1903,1904,1905,1906,1907,1908,1909,1910,1911,1912,1913,1914,1915,1916,1917,1918,1919,1920,1921,1922,1923,1924,1925,1926,1927,1928,1929,1930,1931,1932,1933,1934,1935,1936,1937,1938,1939,1940,1941,1942,1943,1944,1945,1946,1947,1948,1949,1950,1951,1952,1953,1954,1955,1956,1957,1958,1959,1960,1961,1962,1963,1964,1965,1966,1967,1968,1969,1970,1971,1972,1973,1974,1975,1976,1977,1978,1979,1980,1981,1982,1983,1984,1985,1986,1987,1988,1989,1990,1991,1992,1993,1994,1995,1996,1997,1998,1999,2000,2001,2002,2003,2004,2005,2006,2007,2008,2009,2010,2011,2012,2013,2014,2015,2016,2017,2018,2019,2020,2021,2022,2023,2024,2025,2026,2027,2028,2029,2030,2031,2032,2033,2034,2035,2036,2037,2038,2039,2040,2041,2042,2043,2044,2045,2046,2047,2048,2049,2050,2051,2052,2053,2054,2055,2056,2057,2058,2059,2060,2061,2062,2063,2064,2065,2066,2067,2068,2069,2070,2071,2072,2073,2074,2075,2076,2077,2078,2079,2080,2081,2082,2083,2084,2085,2086,2087,2088,2089,2090,2091,2092,2093,2094,2095,2096,2097,2098,2099,2100,2101,2102,2103,2104,2105,2106,2107,2108,2109,2110,2111,2112,2113,2114,2115,2116,2117,2118,2119,2120,2121,2122,2123,2124,2125,2126,2127,2128,2129,2130,2131,2132,2133,2134,2135,2136,2137,2138,2139,2140,2141,2142,2143,2144,2145,2146,2147,2148,2149,2150,2151,2152,2153,2154,2155,2156,2157,2158,2159,2160,2161,2162,2163,2164,2165,2166,2167,2168,2169,2170,2171,2172,2173,2174,2175,2176,2177,2178,2179,2180,2181,2182,2183,2184,2185,2186,2187,2188,2189,2190,2191,2192,2193,2194,2195,2196,2197,2198,2199,2200,2201,2202,2203,2204,2205,2206,2207,2208,2209,2210,2211,2212,2213,2214,2215,2216,2217,2218,2219,2220,2221,2222,2223,2224,2225,2226,2227,2228,2229,2230,2231,2232,2233,2234,2235,2236,2237,2238,2239,2240,2241,2242,2243,2244,2245,2246,2247,2248,2249,2250,2251,2252,2253,2254,2255,2256,2257,2258,2259,2260,2261,2262,2263,2264,2265,2266,2267,2268,2269,2270,2271,2272,2273,2274,2275,2276,2277,2278,2279,2280,2281,2282,2283,2284,2285,2286,2287,2288,2289,2290,2291,2292,2293,2294,2295,2296,2297,2298,2299,2300,2301,2302,2303,2304,2305,2306,2307,2308,2309,2310,2311,2312,2313,2314,2315,2316,2317,2318,2319,2320,2321,2322,2323,2324,2325,2326,2327,2328,2329,2330,2331,2332,2333,2334,2335,2336,2337,2338,2339,2340,2341,2342,2343,2344,2345,2346,2347,2348,2349,2350,2351,2352,2353,2354,2355,2356,2357,2358,2359,2360,2361,2362,2363,2364,2365,2366,2367,2368,2369,2370,2371,2372,2373,2374,2375,2376,2377,2378,2379,2380,2381,2382,2383,2384,2385,2386,2387,2388,2389,2390,2391,2392,2393,2394,2395,2396,2397,2398,2399,2400,2401,2402,2403,2404,2405,2406,2407,2408,2409,2410,2411,2412,2413,2414,2415,2416,2417,2418,2419,2420,2421,2422,2423,2424,2425,2426,2427,2428,2429,2430,2431,2432,2433,2434,2435,2436,2437,2438,2439,2440,2441,2442,2443,2444,2445,2446,2447,2448,2449,2450,2451,2452,2453,2454,2455,2456,2457,2458,2459,2460,2461,2462,2463,2464,2465,2466,2467,2468,2469,2470,2471,2472,2473,2474,2475,2476,2477,2478,2479,2480,2481,2482,2483,2484,2485,2486,2487,2488,2489,2490,2491,2492,2493,2494,2495,2496,2497,2498,2499,2500,2501,2502,2503,2504,2505,2506,2507,2508,2509,2510,2511,2512,2513,2514,2515,2516,2517,2518,2519,2520,2521,2522,2523,2524,2525,2526,2527,2528,2529,2530,2531,2532,2533,2534,2535,2536,2537,2538,2539,2540,2541,2542,2543,2544,2545,2546,2547,2548,2549,2550,2551,2552,2553,2554,2555,2556,2557,2558,2559
SEQUENCE_0,-0.034908954,-0.012973351,-0.011944963,0.017041465,-0.018500414,-0.011426264,-0.0015377788,-0.025164722,0.04252807,-0.00836887,0.04428527,-0.015733015,0.03059832,0.011428932,0.014409649,-1.1936923,-0.021445854,-0.020953216,-0.0009715649,0.046651915,0.031100385,0.038465466,0.02485422,-0.020021297,-0.019718021,-0.02172979,-0.043900255,0.06612213,0.016216278,0.013160742,-0.002800731,-0.0057294266,0.051051542,-0.0039213207,0.021925807,-0.0115681,0.013611804,-0.030049043,0.0016224465,0.012024598,0.023769433,-0.012735093,0.052065235,0.031616565,0.038308255,-0.0017441865,0.024610188,0.017178323,-0.01922328,0.023862967,-0.011499499,0.04625033,0.020136693,-0.0054821307,0.028731072,0.008405107,-0.012817733,0.012665425,-0.021404922,-0.02394662,-0.030994741,0.046987265,-0.008138404,0.04184871,-0.015102567,0.03296235,-0.059545882,0.011172765,-0.007804377,-0.008737301,0.017396022,0.022810647,0.018532746,0.03860094,-0.020490468,-0.091853686,0.011112256,-0.0067528286,-0.02643276,0.042742934,0.023663342,-0.04608203,-1.5290272,-0.014192113,-0.016243387,-0.026656674,-0.0011223578,0.012977014,0.15736288,0.026556961,-0.0198828,0.029122386,0.027273599,0.005185877,-0.0005521765,0.032484643,-0.009613914,0.002699879,-0.035028704,0.020576756,0.014754118,0.022527283,0.009697378,0.0051279403,0.005298296,0.030080939,-0.024528127,-0.01136356,0.03522207,0.0230957,0.012906519,0.012317149,-0.014372807,0.0112998,0.0015784525,-0.013491008,0.0041793957,0.018542936,0.014912142,0.0094607845,0.018853066,0.019959997,-0.015367363,-0.06865491,-0.0051570116,-0.018959519,-0.036562942,0.021988805,0.014836961,-0.012877671,-0.031040655,0.053679176,-0.002577438,0.00574423,-0.029449679,-0.014631302,0.02474415,-0.0026120963,0.01815554,0.014317754,0.021254146,0.0040582577,-0.004287309,-0.011638803,-0.030015802,0.019044973,-0.0092658885,-0.012387353,0.008219491,-0.019768802,-0.0138295945,-0.01811508,-0.012422007,0.08014546,-0.0039040318,-0.013980502,0.01659055,0.018334199,0.0065256106,0.011506652,-0.027955689,0.02770074,-0.01081144,0.021057777,-0.035534658,-0.033256873,-0.01776665,-0.0002258688,0.16276306,-0.015286483,-0.019320214,0.023179553,0.01824175,0.014730346,0.030984556,0.015419158,-0.035952747,-0.036801055,-0.041449558,-0.024779504,0.019618582,0.028735874,0.04768488,-0.017381929,0.020393696,-0.016796174,0.0067771524,-0.020880166,-0.0043194555,-0.02059927,-0.026926812,0.010134438,0.01227501,0.023973487,0.03190166,-0.05886276,0.009742733,-0.03528379,0.04482708,0.018639626,-0.014888689,0.016353114,-0.032756813,0.043104485,0.013614796,0.005173769,-0.036647655,0.03493176,-0.012282722,0.0009262343,-0.018630538,-0.031377845,-0.009470716,0.039206166,0.016625501,0.01001309,-0.003196936,-0.0051125353,-0.02661838,-0.0130231045,-0.022364184,0.04727259,-0.0030310536,0.005870424,-0.0272726,-0.009414057,0.049597237,0.059952427,0.0056362087,0.022423044,0.013710756,0.0071788253,-0.03399276,0.01588049,-0.0010824924,-0.019503493,-0.058463894,-0.017849516,-0.0015945798,-0.011459475,0.06456953,0.0040515307,-0.012568705,-0.017786631,0.014667494,-0.23933215,0.0017514825,0.032167874,-0.021943064,-0.020726545,-0.044094786,-0.006896928,0.015394566,0.01007678,-0.0020610625,-0.030827137,-0.022564132,-0.037038717,0.010660816,-0.04920825,0.0012040632,-0.02031048,-0.020243667,-0.037979566,0.013278351,-0.025767518,0.032390267,-0.026177116,-0.016707573,-0.014048773,-0.030305706,-0.002152566,-0.024320774,-0.032109324,-0.025912557,0.009646159,0.023602342,0.04616983,0.0092276,0.023740897,-0.0670272,-0.017152928,0.015657997,-0.03128668,0.02096257,0.0016353065,0.01659481,-0.011571171,0.050006147,0.029009458,0.02112003,0.013526751,0.019616894,0.024226882,0.049226075,-0.016410535,0.017651416,0.016381726,0.007062482,-0.0017917338,0.031231452,0.01040327,0.022492057,0.028251264,-0.00660757,0.0057758857,0.029771235,0.024488444,0.030623421,0.019566806,0.01380531,-0.014429146,0.030363519,0.030928332,-0.022155844,0.066925436,-0.008443985,-0.008063429,0.02221066,0.04893981,-0.008885751,-0.019741554,-0.036137767,-0.011925836,0.00133707,-0.014359726,0.005906618,-0.013870119,0.022566613,-0.0018170846,0.011233294,0.016543513,-0.008292354,-0.000998145,-0.016121387,0.04468386,0.020148745,0.0138851935,-0.018972302,-0.0031882068,-0.004178367,-0.0052620447,-0.006122586,0.015093502,-0.010550948,0.022445653,-0.02872409,-0.016372591,0.02409077,-0.025438115,-0.011244584,-1.8404028,-0.024464034,0.066378474,0.02513749,-0.01648875,0.027537933,0.0018509319,0.024908923,-0.0036015983,0.05930572,0.039481662,-0.034944132,0.004658465,0.026349673,0.039078817,-0.021236759,-0.031269014,-0.036923952,0.0068907216,0.01465338,0.085131995,-0.029381933,0.020265419,-0.08930405,0.020053871,-0.01213283,-0.018568827,0.023552317,-0.0034105163,0.015530466,-0.027034663,0.0015291478,-0.030419368,0.017968617,0.025845531,-0.009757135,-0.020538885,0.00991183,-1.4046354,0.02131625,0.008087366,0.020613022,0.050409786,-0.061657146,-0.0056426246,-0.01938457,0.026571438,0.017481076,-0.0173378,-0.021011153,0.04898898,-0.038366467,0.01881561,-0.09016857,0.06792507,-0.017762931,-0.018602911,-0.02111902,0.0025425027,0.03932905,-0.013514735,-0.018531078,0.01954115,0.035463937,-0.016160157,0.004475737,-0.01596984,0.008916891,0.022070136,0.032375686,-0.021272775,-0.061620455,-0.019953515,0.013579666,0.029528346,0.01712785,0.02534339,0.016281333,2.0082264,0.043292876,-0.0096503,0.025067406,0.02824722,-0.011866593,0.01750256,-0.0027258755,0.0019231234,-0.0066963574,-0.018483337,-0.040067893,0.020115765,0.98482996,-0.052417256,0.036460783,-0.033779953,0.018908199,0.02614967,0.028299129,-0.021397969,-0.014658722,-0.01664527,0.030024532,0.02555133,0.022843588,0.008589211,-0.0074205184,-0.019195072,0.027515315,-0.011206411,0.0027731736,0.024526972,-0.0021596905,-0.017604925,-0.01567611,-0.017928232,0.03747264,0.021378977,0.0048193946,0.020429406,-0.028076509,0.031631727,-0.044065982,-0.025989654,-0.016721161,-0.054709304,-0.015890662,5.2633677,0.013849351,-0.029928312,0.006784464,0.025056615,0.010924894,-0.01114011,-0.0083355475,-0.040005982,0.010243102,-0.015807202,0.030116487,0.011143096,0.028919596,-0.034747753,0.05131116,0.017518107,-0.027341828,0.006722611,0.024906881,0.032021947,0.007044459,0.02801372,-0.021701077,0.008945266,-0.013910262,-0.011939946,-0.02461883,0.01225456,0.01713805,0.012054274,0.016491191,0.030592859,0.020906381,-0.01299674,0.022476526,0.031528607,0.010350782,-0.043098614,0.0053224135,0.031077193,-0.02665079,-0.21495846,0.0008631416,-0.0071603814,0.020241696,-0.026230302,-0.025738712,0.0050363094,-0.017915525,0.031308293,-0.012627151,-0.010800449,0.017270485,0.038611867,-0.004261593,-0.009930674,-0.01579194,-0.02040768,-0.0151990205,-0.022550104,-0.025970481,-0.015936699,-0.020830445,-0.027867429,0.005747889,0.06777843,0.03826887,-0.066626646,0.023517635,0.0074196067,-0.017826388,-1.6133056,-0.0011561043,-0.016325004,-0.04398787,-0.0076257717,0.0667592,-0.03474441,0.013413389,0.031994753,0.009692102,-0.024747375,-0.02473514,0.02508144,0.011288201,-0.039272085,-0.014290884,-0.022355769,0.011022657,0.035334848,-0.045315288,0.0009204494,-0.036374174,0.016029688,-0.019458652,-0.029901817,-0.025493516,0.030198263,-0.013306222,-0.0011933227,0.009365136,-0.0009426747,-0.023883378,0.010140772,0.04507119,0.056707177,0.015608396,-0.043306768,-0.005395673,0.025924377,0.02706473,0.046602745,0.0021766427,0.017647542,-1.039597,0.019397508,0.03697547,0.009074505,-0.015068904,-0.019298686,-0.0050112354,-1.1156526,0.028891107,0.0023432113,0.03863432,-0.024341673,-0.021512166,0.010178784,0.067570835,0.032754015,-0.03868146,0.4982653,-0.015939642,-0.040241577,0.02765869,-0.01121316,-0.027012298,0.025421027,-0.0052519934,-0.020221008,0.012953863,0.01831035,0.028167706,0.018476522,-0.016694456,0.008590667,-0.015701238,0.029900018,-0.044712134,0.021998912,-2.8819594,0.00044160988,0.01273842,0.0200646,-0.022159234,-0.034572054,0.008581563,0.0058641345,-0.01313619,-1.4620485,-0.022622092,-0.018341258,-0.009272316,0.012549113,0.020299368,0.018006284,-0.0067360513,-0.01788697,0.03073257,-0.0005446272,-0.001691089,-0.02030536,0.028192898,-0.04737941,-0.0047848187,-0.03946076,-0.0064976853,0.013681205,-0.029008657,-0.012236847,-0.0056596515,-0.04789594,-0.02499162,-0.014810503,-0.020954654,-0.020368144,0.020891925,0.021296004,-0.015476942,0.0073255925,-0.027781904,0.04803778,-0.017387498,0.021224825,0.019741189,0.017407106,-0.03759214,-0.003962718,0.022553774,-0.0057272557,-0.008753005,0.027293852,-0.022975767,-0.022576528,-0.008465773,0.026565474,-0.016563848,0.0068166126,0.011532835,-0.019737873,-0.010669643,0.76777995,-0.0354882,0.017409693,0.028385378,-0.0046921284,-0.014062188,0.042150903,-0.029131314,-0.01816289,0.02706179,-0.019712882,0.09708035,0.019152064,-0.023604421,0.0068982057,-0.022715257,0.013214175,0.0065296954,0.028180456,0.008742912,0.021414706,-0.0071981065,0.025580203,0.014144202,0.02632685,-0.029333219,0.028451703,0.014011815,-0.029480046,0.022833278,0.015933737,-0.0011886812,0.0028106906,-0.026792727,-0.0010877829,-0.04307475,0.012862455,0.039690766,-0.014316373,-0.009595392,0.040798426,0.026253551,0.0032711024,-0.014271386,0.0030103833,-0.023066442,-0.037523456,-0.013628637,-0.020326184,0.0037388094,0.11491356,0.02473128,0.013536256,-0.027789453,-0.015909314,-0.023192704,-0.01614298,-0.05810832,0.022094037,0.023321332,0.021656724,0.03904325,-0.008907011,0.029526131,0.005919361,0.012231227,-0.016705897,0.0029439507,0.019834612,0.022004416,-0.03905568,0.028680652,0.034716457,0.0338877,-0.011948743,-0.013878594,-0.025120081,-0.0052334825,-0.02420159,-0.038993023,-0.0003139968,-0.0008606082,-0.0118240835,0.020831838,0.01772731,-0.014899867,-1.094898,-0.008069987,0.019577172,0.018420912,-0.026296748,-0.014607063,0.012054464,-0.016413454,0.008982208,-0.020358752,-0.025299046,-0.015859833,0.02577399,0.010852704,0.011833077,-0.00073633995,0.02937651,0.020736184,-0.022147967,0.026638705,0.020557318,0.036365993,-0.028338296,0.05385315,0.014839322,-0.027584901,0.021972826,0.032324705,-0.0051074503,0.0018992899,-0.0071873483,-0.0066944514,-0.019705098,0.00025734678,0.0074995067,0.05537933,-0.00037096557,0.017729275,-0.007464639,-0.007682248,-0.049559377,0.008148494,-0.041083675,0.026337622,0.033702493,0.016271574,0.008984567,-0.030135665,-0.0037406618,0.010442575,-0.019609349,0.006697271,-0.034733098,-0.0051417258,0.0271837,0.02727583,0.04002571,0.044114504,-0.01036275,-0.06087532,-0.023524653,-0.012508028,0.020264603,-0.0044612787,-0.019912766,-0.018617148,0.019116191,0.026395228,-0.043414403,-0.025687093,-0.0042770784,0.009973958,-0.022489853,0.02704837,0.027139775,0.007856684,-0.027664125,-0.013077671,-0.01821081,0.021178767,-0.02309962,-0.0096314205,-0.013261273,0.014166631,0.009799475,0.019914458,0.023286544,-0.015324918,-0.011099068,0.009662945,-0.013233944,-0.015997946,-0.024690533,0.017983716,0.0017035971,0.018875614,0.039768506,-0.019395081,-0.006293291,0.09481453,-0.02340201,-0.03401809,0.03415905,0.025770398,0.031358063,0.02869889,-0.0039121374,0.033822052,-0.010098291,-0.036076047,-1.2167466,0.0028965874,0.0022054669,-0.005064008,0.020407036,0.02637428,-0.0037740655,0.003354596,-0.014721261,0.0068443567,-0.02301858,-1.3072624,0.040698785,-0.007866321,0.017132103,-0.0035445895,-0.018470809,0.029644696,0.0016251011,0.015916746,0.007917468,0.010028299,1.1968426e-05,0.01430754,0.018261366,-0.01972904,-0.039098784,0.0033144671,0.024605192,0.03370407,-0.0046414193,0.004428823,-0.011902025,0.04409026,0.03951737,-0.0082071135,0.013729878,-0.010269845,0.011108036,-0.052237973,-0.014243806,0.013221992,-0.0064376458,0.010924155,0.02173867,0.036076397,0.00947272,-0.0023803264,-0.024518684,-0.013401408,0.016783217,0.0018331362,-0.014606368,-0.011332884,1.931751,-0.0020808105,0.025803745,0.06445517,-0.029576264,-0.062220845,0.0059256093,0.05904839,-0.03568349,0.022885147,-0.006383415,0.0037311278,0.013186978,0.018148806,0.048156545,-0.03046462,-0.0025266204,-0.008564204,-0.0034210011,-0.03351889,0.0056209397,0.013830363,-0.023113262,-0.028413562,0.008891697,0.03921186,0.02405214,0.0053366125,0.013130283,0.030151704,-0.0258877,0.034456953,0.018138334,0.03195427,0.0125687625,0.045029484,0.06378126,0.0031551104,0.017966097,0.014870845,-0.010034268,-0.02467626,0.023957709,0.011267448,-0.0040010754,-0.021030681,-0.027584536,0.016830947,-0.012934307,0.0029266952,-0.025682973,-0.037752688,-0.014783675,0.020158865,0.023489874,-0.019297961,0.045743477,0.03535371,-0.028916515,0.011154958,0.01766913,-0.010310916,0.016323317,-0.010035658,-0.0646234,-0.0049129697,-0.030462833,0.010915292,0.022952253,-0.0025932807,-0.006580396,-0.02074759,-1.7986283,-0.011406487,-0.02848151,0.0018311692,0.027468368,0.03181556,0.013599748,0.009350853,0.09123596,0.018262796,0.019996833,-0.025637979,-0.01838159,0.021326791,-0.037531905,-0.0012152885,-0.028741177,-0.004177812,0.026149625,-0.05768145,0.037986062,0.0229973,-0.019955643,-0.02637149,-0.08522421,-0.009759971,-0.01544073,-0.04005729,0.03120263,0.034904603,-0.0142845735,0.047685683,0.025162578,-0.010629116,0.005922958,-0.016059054,-0.02570073,-0.020462517,-0.004325816,0.00018820073,-0.06980319,-0.028299844,-0.028053274,0.018007018,-0.024411991,0.010237083,0.004791391,0.03902283,0.014528999,-0.030993357,0.017224796,0.019373193,-0.038873784,0.016286962,0.009109375,-0.0023422781,0.030785136,-0.0006736121,-0.020037163,0.0153074935,-0.002410301,0.013418356,-0.004061509,0.02364346,0.030443251,0.034304075,0.045027554,0.047060672,0.0036854316,-0.029453367,0.004968429,0.025786726,-0.015696917,0.07264218,-0.018076831,0.0126707405,0.033228844,0.020676833,0.028231714,-0.02098998,-0.007315838,0.0047684615,-0.018026043,0.003343041,-0.0069456445,0.013889344,-0.01797702,0.0102199875,0.029704427,0.021518998,-0.0455093,0.023920443,0.009901526,-0.014317832,-0.0038567185,-0.005394181,-0.008799303,0.026687458,0.0016137038,-0.021125846,-0.04296824,-1.1754074,-0.030002836,-0.013881,-0.015675355,-0.022041012,0.021739481,-0.0073894965,-0.031114297,-0.009037144,0.022590406,0.021079943,-0.017640548,-0.0006169174,-0.028061967,-0.013345702,-0.007979648,-0.015024696,-0.018397627,-0.031167537,0.028388435,0.049353816,0.015364319,0.023115752,0.0031935796,-0.004749396,0.0035425825,0.040559713,0.022689654,0.02773113,0.020557635,-0.031141631,0.0187818,-0.033652104,0.019864991,-0.006385442,-0.028583985,-0.021516696,0.012117304,0.034602396,-0.009660007,-0.011656148,0.012468297,-0.0046864534,0.006222654,0.0323177,0.030629158,-0.031359684,0.08170762,-0.016271355,0.005669811,-0.046985563,0.041940182,-0.03190892,-0.0302233,-0.010705086,-0.018417396,0.021376122,0.006134247,0.0056886673,0.024678025,-0.0033585131,-0.023473134,-0.036686365,0.014766197,-0.0051102145,-0.011985973,0.0013323687,0.027607616,0.019923663,-0.0077346866,0.0027436065,-0.014621791,0.0059107253,0.03584918,-0.095245644,0.022116322,0.024123134,0.0021619676,-0.045138184,0.02296613,-0.01653271,0.011670679,-0.017007971,0.028383544,0.00621124,-0.036631826,0.013346013,0.009747241,0.0063901707,-0.008644793,-0.06857364,0.05585079,0.019670188,0.009515287,0.015477467,0.010782731,-0.037616108,0.03288611,-0.039866716,-0.006391862,0.003456769,-0.0214754,-0.02796888,0.020218724,0.037737634,0.015747216,-0.030904211,-0.023983706,-0.0063963756,-0.009057186,0.025634643,-0.02365769,-0.010060202,-0.027275722,0.09545095,0.03228482,0.01754837,0.0013102321,0.008085504,-0.024873018,-0.039114207,-0.011921566,0.02572393,-0.009194985,0.03282272,-0.0072071953,-0.020843841,-0.022623954,-0.034350604,0.01700673,-0.01567423,-0.01772664,0.03338833,0.0052931085,0.02918651,-0.012450126,0.012945058,0.011146292,-0.03482115,-0.01916977,-0.027169425,0.009746121,0.02969949,-0.022963146,-0.030173361,-0.032111984,-0.006380837,-0.0055357567,0.01639806,0.029202536,-0.017394561,-0.011949355,0.03973006,0.018585885,-0.02574791,0.024054576,0.021898257,0.013290465,-0.016304193,0.04094407,0.033318363,-0.023203753,-0.00766444,0.013351566,-0.016695654,-0.019640926,0.026308697,0.007359173,-0.012583122,-0.010828902,0.0048424206,-0.031598717,-0.03801936,0.06670826,0.009064054,0.0022767466,-0.0066159777,-0.03753125,-0.019218713,0.037729677,0.013467696,0.014280227,0.016889835,-0.09645245,0.0317081,0.0323286,0.03385618,0.0024000658,0.009972235,0.010236761,-0.017847668,-0.016052749,-0.043180518,-0.020844445,0.011680944,-0.035772804,-0.014302765,0.02345774,0.035801556,-0.012716253,0.0078083565,0.009493905,-0.019845545,-0.021111412,0.0055939746,-0.07083754,-0.00817645,-0.00804156,0.009022493,-0.010073721,-0.015355686,-0.037200008,0.035485417,0.01975278,-0.03944525,-0.0050141467,-0.018701654,0.00061685353,0.04522814,0.028538484,-0.009385778,-0.021367516,0.020360328,-0.0107877115,-0.021982199,-0.011546043,-0.014666488,-0.022850093,-0.015297011,-0.014938247,0.029086193,-0.008453596,0.0075780386,0.032627344,-0.009805061,0.039294563,-0.08334097,0.025169205,-0.015738953,-0.025493838,0.01838193,0.0022168746,-0.025852885,-1.8766872,0.0033342184,0.024069572,0.039447725,-0.02973916,0.026933042,-0.03686344,0.0051241983,0.030892171,0.011600709,0.018781357,-0.0006582835,-0.023357928,-0.15448387,0.019218888,0.00947063,0.012625338,-0.054314815,-0.02131448,-0.023789017,-0.067710355,-0.029670881,0.021349225,-0.042121544,0.03607162,-0.007977544,0.021653287,0.02934337,0.00987371,-0.016781008,-0.0012719082,-0.016892344,-0.022371136,-0.046640944,-0.016498739,0.00050644856,-0.009873094,0.021832041,0.015314164,0.016194027,0.046009075,0.020270096,0.026690805,-0.01396966,-0.052339792,-0.040208567,0.029206194,-0.0154643105,0.01065349,-0.027402412,-0.0016743932,0.05357589,-0.028206652,-0.0072124796,0.03926073,0.020631492,-0.026320994,0.04941375,-0.027919848,-0.017234292,-0.0057285763,-0.023677219,-0.010099614,0.026537292,0.019466467,0.005708024,0.015689703,-0.0034170193,-0.0053274576,0.018008815,0.014368877,-0.03762094,-0.05484555,0.028553363,0.051305085,-0.02912194,-0.005896252,-0.05683269,0.0018854933,-0.04219452,0.017293343,-0.0029927462,-0.037758954,0.027506802,0.03627548,-0.027373217,-0.012368342,-0.0031216056,0.0085174255,-0.096836895,0.04390503,0.009929866,-0.022041237,-0.02486789,0.05886395,0.014434785,-0.018138325,-0.022323096,0.022711176,-0.00010446552,-0.016620316,0.0049865535,0.060338795,0.016855888,-0.03330985,0.015521664,-0.004332357,0.016684,0.03568501,0.025056386,-0.077579536,-0.019212496,-0.0075124362,-0.036045253,0.012487921,-0.036099203,0.013249078,0.02555989,-0.072627194,0.019543305,0.048884604,-0.027020387,-0.026769124,0.016706366,0.03397654,0.059961706,0.024202127,-0.03531989,-0.01573282,0.021712266,-0.015648255,-0.027272295,-0.029166272,0.032689005,0.031378143,0.00796529,-0.07791232,-0.012515046,-0.033485655,0.027033921,-0.043740995,0.019345619,-0.011191335,0.02202803,-0.011223287,-0.022470934,0.010854426,0.0136477975,0.0038879027,0.0035807337,-0.02502035,-0.02445348,0.016666383,0.016415415,-0.017347591,0.0032857172,-0.0021997092,-0.01232422,-0.0031426642,0.025806997,0.021503562,-0.027204653,0.060495928,0.032864735,0.027694816,-0.018616771,0.07713732,-0.027491923,-0.11741925,0.0009980067,0.19957209,0.029902738,-0.010961926,0.0023752095,-0.01118332,-0.0104831215,0.012418633,-0.027355988,0.016952107,0.007867478,-0.01251452,0.0040672086,0.03130113,-0.008426084,-0.007928371,0.05168698,-0.008469182,-0.029449644,-0.0051950403,-0.017147215,0.017024335,-0.02371779,-0.004439077,-0.0018957988,-0.012237839,-0.020426027,0.019523337,-0.008831333,-0.048207667,-0.037473667,-0.029234735,-0.014141059,-0.0073808264,-0.029568093,-0.028268658,0.0031496277,0.041527312,-0.020432584,0.035688438,0.04245659,-0.032243576,0.008503079,-0.05124599,0.017822042,-1.3049481,-0.02155913,0.0018736171,0.060987312,0.09873586,-0.019198827,0.0010172063,0.027045175,0.02402781,0.020897038,0.018433008,0.034090254,-0.008981729,0.051172093,-0.00033399102,-0.009926103,0.028354572,-0.00846,-0.029478174,0.019662976,-0.026645228,0.019577038,0.024247045,0.019173369,0.040910836,0.02711586,-0.034134764,0.031955823,0.013411345,-0.0064670267,0.012456945,-0.023440683,0.021592548,-0.018407974,0.027129801,0.048974432,0.0078035733,-0.073780514,-0.012984093,-0.02086945,0.057316147,0.013585192,0.018229345,0.0026843452,0.02941559,-0.043660328,-0.00014830846,0.02244225,-0.007695771,-0.02007032,0.107233,-0.048137344,0.005141005,0.059978146,-0.018900253,0.10084376,0.008288365,0.0375496,0.031542886,-0.040753976,0.011714092,-0.008503268,0.49538955,-0.01788933,0.017965453,0.018890569,0.014702883,-0.040228896,-0.010363831,0.037051104,0.047793053,-0.002632284,0.0052713426,-0.018443543,-0.0412749,0.016079862,0.049314886,-0.00669477,-0.011652621,0.030584356,-0.03707359,0.016844697,-0.8946519,0.005183479,0.030299146,0.022032175,0.03675756,-0.08381291,0.026214784,-0.03935444,0.010533292,-0.031694632,-0.009280458,-0.01608151,0.02362474,-0.025649907,-0.0050381473,0.022771861,0.006543731,-0.018092021,-1.2321247,-0.08308582,0.041252386,-0.0585043,-0.0035148114,-0.022785805,0.023959544,0.023384025,-0.009826476,-0.009337572,0.019253751,0.01178395,0.00339452,0.029027589,0.0011284298,0.023194121,0.06770075,-0.032759864,-0.025689641,-0.003698931,-0.029371478,-0.001973576,0.0058367336,0.015810816,-0.026835361,-0.029757343,-0.045737658,-0.060349006,-0.026249925,0.03928146,-0.029684884,-0.0547631,0.01096383,-0.033686157,0.043536402,0.020668436,0.027371403,-0.009219626,-0.027627952,-0.10291218,1.3268121,0.012457322,-0.022528388,0.014964401,0.025285468,0.0020587598,-0.003096032,-0.03649962,0.013230726,0.033236407,-0.017504603,-0.020258725,-0.007601075,-1.3759232,0.028304609,-0.0075366087,-0.011511102,0.0042864876,0.02220555,-0.0063736904,-0.11786586,-0.02314903,-0.0012517711,-0.015935412,-0.032473102,-0.03204434,-0.003710045,0.029368628,-0.029513057,-0.00881504,0.01995375,0.028535308,0.02001379,0.029163655,-0.0026799631,0.008859841,-0.022889957,0.005604836,0.01749213,-0.040148925,-0.0011940869,0.046378627,-0.049464285,-0.0104135815,0.010418603,-0.034708615,0.009698739,-0.012491424,2.5482764,0.035464372,0.036774993,-0.006638525,0.02025666,0.016409393,-0.040478673,-0.0009708861,-0.021595715,0.031179102,-0.013727695,0.036728535,0.0040679825,-0.04424261,-0.022274058,0.0155363325,0.02771876,0.011411586,0.012000393,0.012609152,-0.02090064,0.040251497,0.004517273,-0.010690188,-0.055289045,-0.0023788484,-0.0074789976,0.037166014,0.036253616,0.049257934,0.046363704,0.013968678,0.040511437,0.03447126,0.018796204,0.0029780003,-0.046650343,0.029295398,-0.021540988,0.004748743,0.034987934,-0.026459156,1.0455779,-0.01658785,0.005773513,-0.00074371253,0.004760323,0.031869426,-0.026208077,0.042602684,0.015812384,0.047501974,0.03040408,-0.047013145,-0.027460042,-0.026060402,-0.033684924,0.0092272265,-0.02723338,0.05961267,-0.09009514,0.038041126,-0.0065341415,-0.014265547,-0.006270553,-0.010914879,-0.009763025,-0.012435632,0.003829089,0.034450028,0.0075439904,-0.028539687,-0.13649186,-0.03979598,-0.015502332,0.02798913,-0.01999064,0.011016022,-0.004467752,0.04043757,0.023251401,-0.013527112,-0.041364133,0.013043279,-0.025494369,0.02901234,0.025870206,0.026173934,0.020647332,0.016067943,-0.015933346,0.06826791,-0.018026961,-0.017191779,0.013700789,0.060973067,0.019009367,0.02776118,-0.019970123,-0.035274953,0.0038209544,0.016953947,0.013687636,-0.043168128,-0.01689933,-0.00646784,0.044210635,-0.0027611675,0.064690545,0.00996868,0.031777315,0.10547629,-0.064819835,-0.040216006,0.062911704,-0.0011831103,-0.027791899,-0.04850106,0.035532095,-0.008381847,-0.0665887,0.0148060275,-0.017060235,-0.027742071,0.017753076,0.0055021467,-0.031134784,0.019464713,-0.06912531,-0.011757301,0.03412875,0.027217684,-0.013372282,0.025658369,0.030702341,0.005209245,0.0058456874,-0.0006942577,0.16730505,-0.016393444,0.032837387,0.0061760442,0.01209154,0.021914173,-0.019457709,0.00641473,-0.0032646076,0.0079850145,0.020993683,0.036331106,0.036860764,-0.9195337,-0.48120117,-0.014537353,0.021171067,-1.27018,-0.024766883,2.7071927,0.01448825,-0.033046775,-0.014134431,0.009895732,-0.006647067,-0.027712071,0.028203823,0.02929869,0.012334075,-0.01675122,-0.012320847,0.02649341,0.006788157,0.030632306,-0.037356876,0.017073845,-0.009281754,-0.02115045,0.024542036,1.1366214,0.032858968,0.0069682943,0.048020404,0.019620365,-0.018316273,-0.053474598,-0.013162355,0.062288933,-0.016682295,-0.009178705,-0.07237021,-0.0146151,0.0111525,0.100974925,-0.023504868,0.01974258,-0.039628994,-0.017794672,0.023326796,0.02427471,0.0058549037,-0.011834481,-0.015917012,0.013033627,-0.021302111,-0.03604582,0.05913833,0.019560006,-0.049085766,0.011887387,-0.046537198,0.050798092,0.041286778,-0.0151790045,-0.08427623,-0.10690425,0.007649527,0.020210557,0.022666194,0.04958099,-0.026180435,-0.032614112,0.0091985855,-0.05217011,0.030925144,0.01242717,0.022582885,0.042411156,-0.0032347804,-0.048270557,-0.02521845,0.031774,-0.010826717,-0.013343278,-0.032932006,-0.011296699,0.013810766,0.024179298,0.028814118,0.014052996,0.021989735,-0.010439908,-0.016743992,0.012315909,0.020587092,0.028135562,-0.03751126,-0.017995197,0.04353863,0.0156422,-0.012721875,0.0063528954,0.075905755,0.028774299,-0.033887353,0.0029660584,-0.0011481103,-0.03037838,-0.018083856,0.03433673,0.006721157,0.057575338,0.040012475,0.017992726,0.000682055,0.05126194,0.00019444164,0.0034720988,0.0094221765,-0.023894923,-0.006951038,0.04560575,0.055324815,0.027771587,-0.002768845,-0.008385219,0.07613626,0.021977192,0.011497731,-0.0675983,-0.014131577,0.0233632,0.043198526,0.01168344,0.0072543304,0.011214289,0.017749293,-0.05001247,0.035191342,-0.036789045,-0.03778764,0.0052131144,-0.016207624,-0.08184001,0.0011695549,0.0029429987,0.036568243,-0.013378672,-0.01631413,-0.033226535,-0.15974969,0.028488353,-0.009987083,-0.027080817,0.0070273327,0.02438834,0.012448425,0.022455107,-0.13690853,0.0013630781,-0.04032098,0.0002069734,0.051111072,-0.04274675,0.07163623,0.044549868,0.029535739,-0.023744294,0.011826012,-0.016134894,0.0018069645,-0.027123816,-0.021620393,-0.038570568,0.03961416,0.031612657,-0.028637268,-0.008206619,0.048055407,-0.03440067,-0.041807666,-1.1986386,-0.0011859648,-0.04267399,0.07065966,0.038790677,-0.042797588,-0.042740438,0.004349081,0.0051540313,0.042464793,-0.015551678,0.035317607,-0.045530986,0.034229722,0.03772862,0.0053447103,-0.0025739856,-0.014118063,0.057519995,0.01986446,-0.03328844,0.01936743,-0.008124607,0.029148428,0.013988301,-0.028399311,-0.021113371,-0.018921375,0.05907558,0.00034397864,0.1125261,0.047148254,0.0064664464,0.034088064,-0.036915768,0.03827785,0.034190282,0.012232836,0.041191325,-0.038470786,0.047266766,-0.06255718,0.0130034415,-0.019660398,-0.02633483,-0.09193276,-0.02196572,0.038135365,-0.040978953,0.008258965,0.0049212365,0.02906584,-0.035763565,-0.022004185,-0.019257724,-0.017840061,-0.0072235046,0.0032410403,0.049689826,-0.0067432607,0.033640575,-0.027159568,-0.030461833,-1.6008116,0.047097042,-0.094171256,0.024091033,0.10437784,-0.0059778113,0.011974729,0.015829386,0.006094914,-0.042460933,-0.0026063551,0.019297933,-0.016779017,-0.014449319,0.05008603,0.018336844,-0.01029764,0.014497023,0.08095169,-0.006982105,-0.016902106,0.0273306,0.0007552325,-0.030588556,-0.019512609,-0.0036990615,-0.028373387,-1.6257935,-0.003813197,0.0008830279,-0.020144768,0.0058996985,-0.031580254,-0.031348966,-0.0399054,-0.033264596,0.04904885,0.031397182,0.00075866794,-0.03673895,0.006941974,-0.028021462,-0.00657903,0.015856715,0.00038833823,0.022668436,-0.012209487,0.05090269,-0.02785378,0.015968645,0.07735197,0.01582496,-0.01796819,0.049076524,0.009709909,0.0160171,-0.008558629,0.039484683,0.038861763,0.034582846,-0.079947285,-0.005920849,-0.059287615,-0.061845966,-0.02674738,-0.010207977,0.050078873,0.02149958,-0.01533521,0.0071396,-0.01639909,0.013513973,-0.011795458,0.029814763,0.027724283,0.03383133,-0.013669178,-0.62343043,0.023741819,0.03153963,-0.019932896,0.008900853,-0.06547318,-0.01787501,-0.026682002,-0.025669731,-0.0016323617,0.009512994,-0.022279227,-0.0028043743,0.033459887,-0.024625633,-0.019727215,-0.008666685,-0.018207489,0.013338242,-0.03575476,0.051568862,0.05760341,0.017424464,0.030863632,0.046431333,-0.064922035,0.038321782,-0.020082828,-0.018546833,-0.048071757,-0.023073444,0.06624237,0.06530511,0.016683895,-0.00058480585,0.030108914,-0.011937668,0.070268944,0.05260275,-0.009864311,0.0049972883,0.03469538,-0.012452183,-0.008820306,-0.0674607,-0.038103867,-0.013474543,0.008145631,-0.047723062,0.00588606,0.016020818,-0.025540337,0.07244167,-0.026493799,0.016805977,0.018105838,-0.018410498,0.03114026,-0.02208899,-0.031160397,0.08732376,0.01988793,0.01364316,0.008402232,-0.038310796,-0.71372795,0.031732604,-1.137471,-0.07055673,-0.038114846,-0.015346788,0.010019304,0.052943334,0.034739617,-0.018816397,-0.025844773,-0.057719134,0.023120482,-0.012821,0.015909202,-0.032762714,0.03765119,-0.019194385,0.0030138493,0.01223498,-0.015615325,-0.05071391,-0.028661463,0.028245091,-0.013528237,-0.007137308,0.07693371,0.111710034,-0.02856499,-0.00061171036,0.025903318,0.011873147,0.04977821,-0.008563957,0.013655996,-0.023645345,0.0064899996,-0.019166626,-0.010180806,0.0063441955,-0.023702066,0.018922918,0.045220412,-0.0067184484,-0.06181707,-0.0752732,0.018499633,-0.0063625686,0.0063371267,-0.025252085,0.004121877,0.021824509,0.02441185,-0.06976548,0.022503441,0.018365588,-0.015450737,0.040267807,0.03067357,0.055383544,-0.016519248,0.021163661,0.05196023,0.012142435,-0.002124939,0.028105615,0.028182032,0.015215662,0.015674852,0.0027906701,-0.027110733,0.020685073,-0.01601496,0.008846823,0.033288807,0.024540355,-0.024854459,0.082015745,0.02256732,0.041176792,-0.017697938,-0.006878421,-0.023042308,0.02924777,-0.039879926,0.019842466,0.044484284,-0.025516903,0.0059627136,-0.019608166,-0.020896163,-0.011737358,-0.015323363,-0.060735118,-0.013221905,-0.012110271,0.061369624,-0.0029067295,-0.013995126,0.031724036,0.01763552,0.013001397,-0.0087234005,0.005223519,0.03497825,-0.014519022,0.0067529627,-0.0537617,0.007968985,-0.011203254,-0.0055302675,0.033248607,0.0014203023,0.0072951335,-0.003393651,-0.0063494407,0.0065288004,0.01103698,0.021822665,-0.05378345,-0.020594304,0.018317724,-0.0075139776,0.021795467,-0.014209645,0.018969895,-0.033298213,0.041199964,0.009064296,0.012396696,0.009983487,-0.016388424,-0.047548767,-0.018146671,0.026644103,-0.025875194,-0.0018678117,0.011265819,0.052634496,0.03671962,-0.03864003,-0.058931038,-0.032066908,-0.010796663,-0.019353082,0.009216028,-0.011778487,0.029910244,-1.2773094,0.001958521,0.041877523,-0.019911965,0.010114403,0.052280143,0.0272092,0.06044515,0.0009334106,-0.01432983,-0.016456539,0.009027904,-0.9265984,-0.029201487,0.081172,-0.018129338,-0.0440611,0.0060083857,0.04995829,-0.0065027894,0.018596724,0.017792925,0.0029943446,0.018434176,-0.015963908,-0.020480733,0.045016713,0.023248468,-0.0030266014,-0.020568416,0.08613069,0.06871005,-0.040529896,0.015320811,0.03364647,-0.0030173897,0.001633934,0.051236857,-0.0137134865,0.024402957,0.0038180035,-0.05147213,-0.11048863,-0.007725613,-0.011164695,0.01813092,-0.0008568084,0.008773267,-0.038112555,0.0171783,-0.040351354,-0.010106336,-0.09494781,-0.0025212504,0.0003677518,0.05480809,0.06866272,-0.02379459,-0.023486396,-0.03163497,-0.031169003,-0.016905207,0.01957554,-0.020776346,0.017708873,-0.05030825,-0.025833763,-0.029238358,-0.04177497,-0.0021018006,-0.0455376,0.03706797,-0.011428215,0.011104597,-0.014320413,0.033658106,-0.00897583,-0.04133845,0.016236711,-0.006359227,0.017005524,0.0053002816,-0.00082702097,-0.08022391,-0.0049105072,-0.00014470704,-0.012997212,0.04367452,-0.022657525,0.015379282,-0.0017337321,-0.004272043,-0.012637514,-0.028186798,-0.03153157,0.0061615594,0.04419779,0.039128065,-0.051902708,0.032959793,-0.02500037,-0.04072778,-0.0259708,-0.00922989,-0.037566274,0.030541562,0.07822561,0.02578693,-0.04202598,-0.094492376,-0.029764561,-0.027827077,0.018317064,0.053146258,-0.021411274,0.0155495275,-0.015699323,0.017841717,-0.020296808,-0.01282628,-0.01820713
SEQUENCE_3,-0.038532272,-0.013350836,-0.0157827,0.03881696,-0.022887312,-0.01210418,0.0029449982,-0.023465283,0.05395876,0.0030690562,0.04699374,-0.01979229,0.02429467,0.016166795,0.020097986,-1.1735978,-0.02811487,-0.022897173,0.0012729033,0.05222083,0.037499607,0.04329931,0.037626825,-0.01978654,-0.023513341,-0.03583389,-0.03724825,0.06375649,0.022017147,0.015487125,-0.0046053044,-0.0055008233,0.061443552,-0.014735702,0.033289187,-0.017543778,0.029885627,-0.030279512,0.008859118,0.016286802,0.037669804,-0.04504987,0.059665572,0.03781525,0.038908564,0.002987259,0.027527824,0.022008892,-0.029941892,0.032953415,-0.012950318,0.04732032,0.027159918,-0.0156136835,0.032356042,0.0042155464,-0.011929495,0.01365272,0.00635817,-0.031980217,-0.032980073,0.060866214,-0.010582554,0.056109212,-0.025323892,0.035183318,-0.080589026,0.021119047,-0.008251496,-0.0102981,0.035824105,0.025512632,0.019094855,0.050993167,-0.030354364,-0.09285316,0.016357575,-0.011306612,-0.032621782,0.020048397,0.025218965,-0.049374066,-1.4955171,-0.020779666,-0.022254487,-0.034444187,-0.0019476791,0.027784858,0.15929732,0.032310836,-0.02507868,0.041063614,0.022028688,0.007169714,-0.0044906912,0.046439536,-0.011286877,0.00036764424,-0.052428097,0.0237962,0.009541541,0.023025846,0.018756451,0.017229073,0.009342044,0.039274286,-0.029975109,-0.016694963,0.03559334,0.034718327,0.020043343,0.01688186,-0.022884697,0.014276882,-0.001037559,-0.019231098,0.005243405,0.02827032,0.01815189,0.02616638,0.025901046,0.023315167,-0.016601006,-0.07491899,-0.0006496034,-0.024074294,-0.047819823,0.022581695,0.02293206,-0.018373102,-0.037176043,0.05161524,-0.0037822817,0.0009393161,-0.035643753,-0.020877888,0.023877097,-0.0040244525,0.017697293,0.018095221,0.022979518,0.0055632386,-0.012228288,-0.027860286,-0.04535958,0.006835037,-0.004896856,-0.015372321,0.01223763,-0.027941003,-0.01722268,-0.020472907,-0.0073140943,0.093257114,-0.0067075132,-0.020546703,0.028915035,0.016384281,-0.0003979078,0.016857104,-0.029636465,0.042308707,-0.015668321,0.026547689,-0.04018136,-0.03091636,-0.026742894,-0.0066090305,0.23022144,-0.017893935,-0.024825033,0.026545916,0.026666064,0.016085021,0.023545401,0.017449765,-0.04038127,-0.048250593,-0.048690632,-0.030215072,0.025505815,0.029699445,0.041716844,-0.01921053,0.020074677,-0.021927178,-0.0064813253,-0.023790268,-0.0043454636,-0.026435146,-0.030422889,0.016242465,0.015218878,0.031894073,0.036539733,-0.08207731,0.019955609,-0.030317217,0.05059892,0.018157743,-0.011848289,0.026991395,-0.041056953,0.043911472,0.013802701,0.009627517,-0.025739636,0.033531055,-0.015373932,0.002695803,-0.030562138,-0.032210313,-0.01726386,0.033806525,0.024086952,0.011106998,-0.0038689366,-0.0067716506,-0.031609487,-0.023009654,-0.033265553,0.04618505,-0.0081126345,0.0001760216,-0.038528424,-0.014918106,0.042622477,0.06809944,0.013381749,0.026982425,0.020370446,0.013270489,-0.03330832,0.022441087,-0.0082793925,-0.005957039,-0.070091054,-0.030214788,0.0030044853,-0.01922001,0.067834996,0.015050744,-0.015591392,-0.027089778,0.017701548,0.4764851,-0.00016991608,0.035397857,-0.02162,-0.024049273,-0.04566605,-0.009960097,0.020346273,0.01122746,-0.008433775,-0.026556151,-0.028114732,-0.033879314,0.019996993,-0.048219517,0.015244594,-0.021063108,-0.027728196,-0.026285222,0.024780456,-0.03657053,0.04215915,-0.023437126,-0.02331937,-0.024442023,-0.060797673,0.00019104569,-0.023349658,-0.028635368,-0.02866472,0.012907382,0.031403054,0.055361185,-0.011527311,0.026903156,-0.049973592,-0.017952994,0.023909725,-0.04032653,0.022930102,-0.0067444853,0.024842871,-0.006032341,0.054918557,0.028358605,0.019138496,0.010669222,0.014360094,0.017760199,0.025765968,-0.031186273,0.023860915,0.02343671,0.015576733,-0.009686543,0.027603697,0.03070078,-0.0070918454,0.024393188,-0.007270221,0.00013746414,0.024172843,0.026636284,0.032207046,0.016714899,0.015439853,-0.015946932,0.031121125,0.03545694,-0.02527131,0.08424346,-0.012245439,-0.008580826,0.020700527,0.045032457,-0.014798545,-0.025515232,-0.04065543,-0.01552943,0.0045318753,-0.017302053,-0.0007818169,-0.0185178,0.025745954,-0.008583376,0.02606273,0.0009302888,-0.015029053,-0.010559541,-0.019882455,0.060510892,0.026568526,0.022321023,-0.029988505,-0.003874058,-0.015421029,-0.009057166,-0.01333374,0.019089175,-0.0016953088,0.030946465,-0.027309073,-0.022157349,0.019656684,-0.035227958,-0.014683414,-2.4788089,-0.024143023,0.054859217,0.027926452,-0.032966778,0.03566839,0.0012055472,0.029548883,-0.0038251297,0.06193982,0.05375709,-0.04042451,0.004070441,0.0283638,0.04348625,-0.020571906,-0.03490692,-0.044229735,0.004208794,0.016283084,0.54518175,-0.029979222,0.019570988,-0.091600046,0.024920775,-0.01741842,-0.022787023,0.03664071,-0.01328511,0.03127686,-0.03463935,-0.009154806,-0.04282526,0.019037543,0.03300658,-0.013777651,-0.025780078,0.013859614,-1.4209139,0.029852604,0.007562388,0.022014577,0.05975437,-0.046263654,-0.008284778,-0.021748887,0.034989297,0.019115176,-0.0146692,-0.010444632,0.037422724,-0.050477877,0.033952255,-0.092708744,0.08523009,-0.022832615,-0.022649162,-0.043572884,0.009518058,0.045769144,-0.018905673,-0.026003702,0.02586365,0.033654273,-0.028463133,0.007046394,-0.021442195,0.008867234,0.023441598,0.04008202,-0.022918817,-0.06039996,-0.02561877,0.010087542,0.04119384,0.024969457,0.02342197,0.024135489,1.5708556,0.04728579,-0.013278024,0.025511792,0.030422777,0.019323654,0.01922128,-0.010136683,-0.00042004883,-0.0054279426,-0.025697827,-0.037273005,0.037780445,1.8315297,-0.06393017,0.04701551,-0.04406558,0.022859437,0.024187535,0.0356773,-0.030400656,-0.013994862,-0.022133969,0.035171635,0.03991206,0.021313952,0.015977161,0.009386007,-0.025450239,0.036995567,-0.022612594,3.0017574e-05,0.029892892,-0.002621964,-0.015874444,-0.02626492,-0.024803618,0.039119285,0.02490625,0.009800901,0.025104892,-0.04069452,0.029240355,-0.032037336,-0.043295316,-0.019353574,-0.06364552,-0.015677184,6.250956,0.02452728,-0.027459675,0.0062633357,0.03192666,0.0022010715,-0.023427505,-0.009945446,-0.04608914,0.018096412,-0.022295855,0.03736763,0.012021616,0.04376318,-0.035412908,0.042413916,0.028563276,-0.04101349,0.0133440215,0.03245258,0.03879154,-0.005985184,0.031885117,-0.023921786,0.011055997,-0.015612904,-0.017974775,-0.031321064,0.01712935,0.019939808,0.0071203257,0.019371394,0.029923286,0.026818603,-0.024555586,0.023121424,0.029666873,0.017980147,-0.048967794,0.0053131743,0.0410242,-0.036642477,-0.043171465,-0.0054031163,-0.0042025466,0.025773734,-0.019060183,-0.02470206,0.009848136,-0.013812525,0.034003247,-0.018967059,-0.019215232,0.018042644,0.0328359,-0.008219641,-0.017425321,-0.025998902,-0.026184406,-0.0094828475,-0.030153293,-0.044527877,-0.017927568,-0.031124678,-0.034989897,0.00012786314,0.06837216,0.048627924,-0.072433874,0.027427595,0.008810043,-0.027662314,-1.4236706,0.0010023257,-0.02124045,-0.055433948,-0.008156978,0.0878041,-0.051811542,0.019205071,0.02991799,0.0024737697,-0.04484152,-0.04007422,0.019814588,0.020239595,-0.045653865,-0.012920709,-0.03142576,0.019255063,0.057513572,-0.04792854,-0.005300548,-0.035670687,0.015089912,-0.02733254,-0.03669329,-0.031501785,0.03662503,-0.02443603,-0.012390911,0.017841224,0.0013605121,-0.028414136,0.012941038,0.052279893,0.07200345,0.023727547,-0.04092743,0.022226162,0.036503382,0.030776646,0.1037371,0.0035240725,0.014232889,-1.00419,0.024394372,0.042512424,0.010482088,-0.02285944,-0.031679932,-0.005592905,-1.1062859,0.03826645,-0.009635953,0.03558947,-0.029296912,-0.026807945,0.015051507,0.06513257,0.020227946,-0.04019388,0.29333487,-0.019623904,-0.050171956,0.029302567,-0.020096496,-0.03317652,0.028798312,-0.009795798,-0.029028878,0.016123317,0.018365175,0.030393537,0.019821914,-0.022312796,0.007741059,-0.012784547,0.036284447,-0.053174336,0.027343815,-1.500366,-0.006680559,0.021943875,0.028350865,-0.028085513,-0.04473361,0.0012443652,0.0031640546,-0.0033696573,-1.4269575,-0.03207253,0.0033124015,-0.01179125,0.016179519,0.0298811,0.018207012,-0.012968674,-0.02281978,0.035735045,-0.0035643307,0.014898501,-0.020324342,0.029872295,-0.053671993,-0.011420785,-0.030573549,-0.012597412,0.025102958,-0.033983465,-0.016198602,-0.011375096,-0.048942428,-0.024212895,-0.0172815,-0.02145998,-0.021019697,0.025742546,0.019829588,-0.019826706,0.013068379,-0.04126636,0.054686952,-0.025823176,0.02826032,0.028260762,0.02016074,-0.04756335,-0.010871031,0.032262795,-0.005097896,-0.01920989,0.03574889,-0.034547698,-0.0149337845,-0.011438667,0.036149725,-0.016312141,0.007627351,0.009290561,-0.028714148,-0.0011617518,0.9572631,-0.0318292,0.022426698,0.03099342,-0.024058202,-0.020810144,0.05062042,-0.03799615,-0.023415396,0.03729609,-0.026541239,0.108214185,0.018044172,-0.026120398,0.0017131395,-0.03146313,0.017284598,0.008230103,0.03252524,0.018205531,0.028728474,-0.015006224,0.022904422,0.02040247,0.030731391,-0.030682188,0.028489087,0.020843405,-0.028727435,0.032402188,0.024231352,-0.0044151256,-0.006390637,-0.032721784,-0.011043552,-0.05693669,0.018832343,0.051664684,-0.012920982,-0.01832465,0.04820351,0.0329811,0.005655523,-0.011909952,0.004782204,-0.030141674,-0.035608005,-0.01582576,-0.034921024,-0.0017748717,0.11240713,0.038061947,0.016305506,-0.02023869,-0.021428771,-0.033257708,-0.018102173,-0.07043478,0.03513119,0.023742111,0.028773915,0.034193724,-0.012519111,0.018170401,0.003485896,0.018237786,-0.019645367,-0.004277408,0.027155347,0.029175764,-0.04504346,0.033932686,0.03319045,0.033329897,-0.022602156,-0.014842663,-0.02888294,-0.007657432,-0.024398064,-0.041513793,-0.00050852867,0.0052556465,-0.009025715,0.025222316,0.026792359,-0.022924501,-0.81092244,-0.012611378,0.024063097,0.025922818,-0.029786505,0.0031945938,0.015926246,-0.027454905,0.00946957,-0.022605723,-0.024537355,-0.019070033,0.030037107,-0.0014736429,0.014210517,-0.0018093958,0.024930801,0.024040163,-0.027743388,0.031423427,0.014845021,0.036742114,-0.038120262,0.066209726,0.024986044,-0.03793427,0.02296351,0.029582366,-0.014641701,0.005345119,-0.005624857,-0.013158629,-0.023036605,0.0035081238,0.011243597,0.055274315,0.0057688067,0.019471608,-0.004841971,-0.020416234,-0.050387803,0.0126405,-0.051499527,0.028519839,0.037002698,0.02429947,0.00474138,-0.027262188,0.0016302159,0.023863683,-0.027952384,0.016157297,-0.057797775,-0.0010965616,0.034687713,0.031291578,0.043104164,0.037868988,-0.012223432,-0.06930376,-0.01922199,-0.04302107,0.022537362,0.0004956542,-0.030480755,-0.028849427,0.02616323,0.03121074,-0.042589772,-0.028193628,-0.011400709,0.020187404,-0.028259285,0.032231055,0.032523688,0.0149671985,-0.05099447,-0.046553135,-0.024800252,0.01954398,-0.035608154,-0.013460163,-0.012859517,0.017785426,0.031291187,0.026891556,0.025749948,0.0013025901,-0.014949888,0.018693335,-0.020858783,-0.017406337,-0.025385613,0.025616925,0.00051442906,0.022734236,0.043810956,-0.018903734,0.022892628,0.11107616,-0.030753836,-0.037902996,0.039676774,0.030338075,0.042218436,0.03466743,-0.0034818617,0.03965387,-0.0069711064,-0.044035204,-1.1664207,0.003175823,-0.0044297343,-0.008106218,0.02958822,0.021828659,-0.011560285,0.0156195,-0.018400054,-4.157424e-06,-0.04274594,-0.52703714,0.041730322,-0.012850685,0.018539296,-0.008734595,-0.026336975,0.03770361,-0.00085888524,0.0076414514,0.020832712,0.0095165055,0.003887643,0.023568198,0.0234355,-0.007964592,-0.048229784,0.0031076253,0.032564584,0.03954413,-0.015190624,0.014129686,-0.01975112,0.047413237,0.040872835,-0.013226364,0.011610813,-0.010925883,0.008545532,-0.07137582,-0.027289731,0.014227065,-0.013281701,0.018561225,0.021933788,0.044536546,0.004608469,-0.019229095,-0.025481034,-0.020166531,0.028230615,0.014859472,-0.021100624,-0.007661381,1.9558753,-0.010266192,0.028391201,0.055396788,-0.027700102,-0.060663886,-0.004857086,0.05220388,-0.06525177,0.033671193,-0.009514694,0.0011978894,0.028759975,0.01940519,0.045145426,-0.041700292,-0.005818247,-0.014544874,0.0047511905,-0.03666662,-0.004704649,0.021671895,-0.0322806,-0.009344325,0.008126598,0.047495194,0.026850764,-0.00967354,0.018819155,0.05248674,-0.031354986,0.037957367,0.031714413,0.03909432,0.019295279,0.04930571,0.055907745,0.011023443,0.02116939,0.027464963,-0.017441314,-0.025337534,0.025432236,0.012116274,-0.008954756,-0.029868264,-0.030239392,0.025038173,-0.016779486,0.0123728905,-0.017872268,-0.04296953,-0.00927443,0.033231,0.041297905,-0.026080769,0.056996442,0.03746548,-0.036437944,0.011812255,0.010409035,-0.01798623,0.01684756,-0.013108972,-0.07747448,-0.019368142,-0.03866522,0.01105078,0.026188616,-0.018765887,0.019384397,-0.026210641,-1.7686087,-0.031066343,-0.039380625,0.008877252,0.0302822,0.03473974,0.011658079,0.008765925,0.085893326,0.020352086,0.0295435,-0.032245178,-0.027817614,0.024080534,-0.042175688,0.0009875022,-0.033690542,0.0018569962,0.033036567,-0.06138527,0.050045565,0.032908488,-0.02841619,-0.031707507,-0.085975625,-0.013663359,-0.02112974,-0.04606003,0.04202009,0.03370627,-0.020256842,0.055618446,0.035172123,-0.016607167,0.006482365,-0.02257834,-0.03730327,-0.03337789,-0.0096301045,0.0029149652,-0.060765725,-0.03466841,-0.03359727,0.023159163,-0.030337628,0.016005136,0.010443348,0.050358478,0.028134078,-0.043032404,0.020915203,0.026198924,-0.04164896,0.02547554,0.006666934,-0.008654352,0.035905175,0.0012589581,-0.01829021,0.011591723,-0.004280828,0.017233988,-0.018126106,0.027705153,0.035623465,0.040042106,0.05910951,0.050811116,0.017534232,-0.045767687,0.019286022,0.03041096,-0.023248961,0.08042583,-0.022621471,0.021625426,0.03067159,0.020911243,0.040166512,-0.023379982,-0.010931238,0.0043056943,-0.02361948,0.009871811,-0.0044106906,0.025940243,-0.027256774,0.016645534,0.031025182,0.020868922,-0.06562802,0.032300323,0.009950104,-0.016018571,-0.006720107,0.0051940465,-0.0063251043,0.036027763,-0.0032933212,-0.024938755,-0.04716624,-1.169315,-0.033578802,-0.016432784,-0.027276248,-0.03180421,0.0058529065,-0.0048423866,-0.03268592,-0.008014572,0.022905972,0.030196937,-0.008087315,-0.001292224,-0.032703552,-0.02375213,-0.009010541,-0.019863525,-0.024149843,-0.03833794,0.02948116,0.05341669,0.014833607,0.026308712,0.009263227,-0.009997442,-0.004837354,0.04666645,0.019830067,0.030017698,0.018333357,-0.027678337,0.022056896,-0.039942868,0.019256435,-0.006289701,-0.029096749,-0.03439355,0.017429905,0.042498313,-0.019097567,-0.01995382,0.026562817,-0.010177084,0.011222907,0.033987526,0.03320084,-0.035090066,0.103532515,-0.029324155,-0.004321605,-0.04923477,0.029596426,-0.034656264,-0.03948598,-0.020282948,-0.020315193,0.019786999,0.0032903424,0.0031058136,0.025976865,-0.0027247723,-0.026691405,-0.048614066,0.0111912135,-0.011945529,-0.015310688,-0.036374837,0.043539368,0.02820825,-0.022106692,-0.0075449864,-0.005994455,0.012505437,0.057124212,-0.103611976,0.019041475,0.032505818,-0.004939032,-0.038878728,0.021233875,-0.020181676,0.013843621,-0.021070529,0.05033645,0.008621065,-0.043734998,0.01612914,0.012107773,-0.013990614,-0.016684964,-0.05621842,0.050695665,0.03047875,0.016212203,0.02520091,0.0012459476,-0.03348892,0.036973253,-0.04284418,-0.01392632,0.010879591,-0.024369985,-0.032906156,0.010043354,0.03742021,0.018284334,-0.038994126,-0.028704232,-0.01821718,-0.018673081,0.017064223,-0.037454173,-0.0075775697,-0.040302657,0.083620206,0.03435095,0.026266955,-0.00992081,0.014461829,-0.023016749,-0.05238072,-0.015689434,0.03141567,-0.01381701,0.038502336,-0.011674144,-0.024966901,-0.018134303,-0.043170027,0.01912821,-0.026961826,-0.025490224,0.046899043,0.0033546528,0.04152205,-0.014953718,0.02043113,0.016708825,-0.031395454,-0.027569788,-0.028675722,0.0039278846,0.037293024,-0.026420495,-0.037099924,-0.04629026,-0.012101116,-0.001131586,0.013507877,0.047484107,-0.019806735,-0.018332265,0.043977585,0.018008782,-0.043407254,0.028853405,0.033686023,0.021460535,-0.032384202,0.043717984,0.03631205,-0.031524822,-0.027403947,0.023215141,-0.024075223,-0.025982592,0.029346544,0.0059540235,-0.022428438,-0.016988143,0.014061092,-0.0579359,-0.018531956,0.07358365,0.011422262,-0.00741061,-0.010515551,-0.04675701,-0.02420793,0.036267232,0.022209436,0.021893445,0.020604199,-0.087427795,0.033774912,0.039598275,0.03002608,0.0031676556,0.015800862,0.033846457,-0.017444544,-0.018559726,-0.048338205,-0.035686694,-0.0012720376,-0.04041904,-0.01958398,0.024552047,0.026667764,-0.020621944,0.018053079,0.025177542,-0.012388506,-0.054111417,0.017934397,-0.06773823,-0.021823922,-0.022967165,0.006185295,-0.012031095,-0.013885911,-0.053143147,0.032666624,0.022347135,-0.043556627,0.00014487468,-0.023864727,0.006114731,0.04536394,0.027988723,-0.009939667,-0.029757088,0.028592477,0.012886429,-0.006250742,-0.023603877,-0.010150928,-0.026758708,-0.019728148,-0.028022133,0.031460777,0.0066107605,0.013057799,0.028421238,-0.020316424,0.040088642,-0.09879365,0.034592096,-0.0077289883,-0.024803802,0.02320556,0.0048106555,-0.03694509,-1.7441643,-0.012970989,0.050223306,0.021658074,-0.037255943,0.034759674,-0.0471946,0.009022389,0.03665699,0.0062777456,0.017589428,-0.01704976,-0.021635327,-0.17436084,0.01826502,0.012759107,0.003755611,-0.05888572,-0.03004713,-0.015192588,-0.089427814,-0.05121649,0.014911227,-0.03519458,0.046422485,-0.006673458,0.015101495,0.032593615,0.0055242013,-0.026224822,0.008645454,-0.027025882,-0.025653187,-0.05399416,-0.020019919,-0.0036800262,-0.009971263,0.030707557,0.015944276,0.024483806,0.041222412,0.03041656,0.011850393,-0.033644136,-0.063320674,-0.042886365,0.026242163,-0.022968613,0.0014939457,-0.021994494,-0.005377446,0.038174212,-0.02299108,-0.017857503,0.0434923,0.03150566,-0.02555481,0.02717495,-0.032302044,-0.022858635,-0.0016192589,-0.030866142,-0.015772037,0.03211421,0.030636715,-0.003739044,0.026700385,-0.013586339,-0.00074779405,0.017309306,0.025663288,-0.008424947,-0.0665013,0.036834568,0.037224524,-0.03864238,-0.020240372,-0.06399927,0.008789471,-0.040384915,0.0282899,0.0010729679,-0.029564852,0.026402669,0.018440003,-0.039060164,-0.02664581,-0.0011204445,0.007086939,-0.09426443,0.042415652,0.014177788,-0.03339938,-0.030405551,0.06437409,0.021119475,-0.025864929,-0.02976058,0.029175244,-0.0055921962,0.00048404187,0.007910084,0.0840918,0.022214564,-0.04636015,0.01784043,0.0052500647,0.024027314,0.036378097,0.028481148,-0.08751628,-0.028974859,-0.0039026383,-0.03814956,-0.0019338084,-0.034945257,0.019074101,0.02653378,-0.074775055,0.021961475,0.050177246,-0.02772806,-0.03742401,0.02386009,0.051679544,0.061092425,0.004541545,-0.033503823,-0.007064322,-0.015960306,-0.019993328,-0.030273411,-0.041788153,0.044071507,0.028579876,0.012620436,-0.091147125,-0.033722214,-0.0034951298,0.029259002,-0.04254074,0.027825285,-0.018264685,0.01854244,0.0117973965,-0.030156583,0.019589968,0.0085128145,0.00027766777,0.031214137,-0.030953046,-0.019372031,0.023159329,0.016833525,-0.023193505,0.059211314,-0.0016622436,-0.025066264,0.024900235,0.02446713,0.030797493,-0.004703301,0.06826657,0.002880346,0.024789479,-0.028765582,0.08412585,-0.052407395,-0.108440384,0.008217553,-0.44704106,0.042819552,-0.038635425,-0.0010671471,-0.01331668,-0.029646682,0.020209279,-0.03072095,0.009197532,0.008373382,0.016866863,0.02362956,0.03961563,0.02379591,0.011568695,0.07208463,-0.00902345,-0.033464897,-0.0073181097,-0.023419045,-0.017785832,-0.026214398,-0.008422032,-0.0053058695,-0.015109275,-0.026424503,0.02710447,-0.016766286,-0.04223605,-0.04106973,-0.03366875,-0.017064473,0.009917455,-0.037083577,-0.025054289,0.0047248313,0.037007645,-0.024789944,0.044615805,0.05372177,-0.04296068,0.014542728,-0.053643726,0.026806217,-1.3453182,-0.022511896,-0.0068905214,0.057366088,0.1331684,-0.012005923,-0.0022623055,0.028016657,0.038998105,0.027433693,0.014780372,0.029145055,-0.017402284,0.055178158,0.013102278,-0.005080576,0.04222453,-0.033219174,-0.039048664,0.014345087,-0.026213404,0.027974462,0.036176298,0.018090308,0.052080438,0.034899376,-0.034298107,0.049311966,0.018019935,0.006561254,0.008512547,-0.027356539,0.03127179,-0.01742611,0.017302776,0.03607609,0.01643974,-0.08646839,-0.018280897,-0.029851245,0.081915006,0.016329473,0.019737737,-0.0005440899,0.033187,-0.052896872,-0.009847817,0.027849952,-0.025092533,-0.021030122,0.09150718,-0.037779868,0.017686717,0.014202473,-0.019470677,0.0923317,-0.028488152,0.027953506,0.0389885,-0.030154552,0.030539379,-0.015523391,0.22546154,-0.024194619,0.025018485,0.024134751,0.006490463,-0.032527745,-0.022693114,0.043833308,0.035862833,0.0006067883,-0.011841823,-0.014541407,-0.06671662,0.024399662,0.06223461,-0.0058333753,-0.007681613,0.011087346,-0.038512465,0.022543138,-0.71148336,0.005649854,0.039143454,0.023513384,0.04455477,-0.06752174,0.032397296,-0.035428308,0.012205198,-0.03850339,-0.014561767,-0.03324608,0.0272309,-0.0058690854,-0.0070401337,0.030040987,0.0053662024,-0.014622466,-1.3369097,-0.081467986,0.04959473,-0.056595076,-0.0052683735,-0.026563726,0.04709668,0.027449943,-0.0030265974,-0.014844889,0.021510702,0.024237255,0.00525089,0.032805424,0.012620849,0.025960028,0.07685189,-0.034392316,-0.010753039,0.0024323957,-0.031983018,-0.028520528,0.010789081,0.023681372,-0.025603183,-0.04166928,-0.06358804,-0.050236803,-0.043300267,0.046230257,-0.03794072,-0.06415713,0.027330946,-0.033855952,0.064544596,0.020426156,0.02884419,-0.015125337,-0.030048274,-0.11544812,0.695021,0.021177907,-0.019930016,0.045343295,0.039239068,0.00042029098,-0.010846527,-0.040940724,0.008973644,0.042450476,-0.015644178,-0.01667302,-0.007843227,-1.3674402,0.024530765,-0.0041729845,-0.0017366474,0.010013993,0.040944394,-0.0076721264,-0.14446886,-0.02575655,0.0006072754,-0.022672541,-0.047356267,-0.035032976,0.01058186,0.040866334,-0.029318176,-0.022738129,-0.0045179287,0.03670487,0.011802102,0.0350544,-0.0024837386,0.013698082,-0.02055812,0.003949932,0.017322455,-0.035373732,-0.006818432,0.025895882,-0.049890466,-0.0068246806,0.0120361075,-0.02770049,0.019244436,-0.01856646,4.8132553,0.032260302,0.044119243,-0.00817516,0.02135723,0.013232194,-0.048736107,-0.012937531,-0.023527507,0.03048587,-0.01840139,0.043211237,0.012959947,-0.0407354,-0.027083583,0.028863028,0.035897724,0.009956893,0.002941548,0.0071157855,-0.022035746,0.01839958,-0.0152883455,-0.01409029,-0.02001502,-0.019499904,-0.0060300305,0.035796024,0.04051836,0.0509629,0.050059214,0.02405005,0.048944395,0.046108346,0.022311881,0.01293106,-0.060362708,0.022234093,-0.017064359,-0.011202154,0.05599416,-0.024722258,0.86495143,-0.010929739,0.003978972,-0.0030909837,0.006181881,0.027895968,-0.024281364,0.025484769,0.01771472,0.05084326,0.029172584,-0.050901216,-0.040255636,-0.048441,-0.045007423,0.003811187,-0.03462954,0.0740749,-0.09446248,0.042715304,0.0038472642,-0.01602816,-0.015270832,-0.017016405,-0.023248341,-0.014747234,0.032456517,0.037445255,0.0042742053,-0.031506658,-0.2940781,-0.023980308,-0.014936263,0.06258885,0.006897619,0.0032183174,-0.007832539,0.056320235,0.0551551,-0.018884253,-0.051888846,0.008880903,-0.010721551,0.026166111,0.037179515,0.04499827,0.036509994,0.027276464,-0.020406406,0.06708193,-0.023749368,-0.021870453,0.023053758,0.075151905,0.02318985,0.041930825,-0.017846942,-0.05849263,-0.006239176,0.021031238,-0.0037619574,-0.06776708,-0.021593666,-0.010262511,0.047780488,0.0009698337,0.047055505,0.0098683415,0.045478214,0.099263795,-0.059189416,-0.043277536,0.0686016,0.006465446,0.00774312,-0.05927947,0.04689908,-0.0076594194,-0.0714762,0.028676543,-0.01653399,-0.027649093,0.027578656,0.015635595,-0.01935939,0.0012712702,-0.06394595,-0.0041047,0.052306257,0.06369965,-0.025615962,0.029593647,0.040186156,0.0032853836,0.010920565,-0.0054339934,0.16898853,-0.016841788,0.021936852,0.018872082,0.028818801,0.014768218,-0.020537585,0.016477395,0.0011898901,-0.00809977,0.01757371,0.036561213,0.019716812,-0.9432482,-0.6211668,-0.031389683,0.018229831,-1.3626028,0.09765732,3.787914,0.02257954,-0.039892044,-0.030082786,0.0038226629,-0.022842983,-0.016280798,0.032222755,0.03769735,0.023592891,-0.026334051,-0.008249502,0.04161505,0.0036920418,0.034642186,-0.041216098,0.021739328,-0.010311664,-0.034079082,0.027757939,0.72580373,0.030540325,0.015070992,0.045342807,0.011819991,-0.015747376,-0.055152714,-0.023923546,0.056495707,-0.019043177,-0.023246802,-0.084275596,-0.01784509,0.019312367,0.04792881,-0.050044645,0.021048427,-0.037043057,-0.025672756,0.033487923,0.031248964,0.013089944,-0.026477756,-0.018579867,0.017496811,-0.019951705,-0.04159609,0.05316924,0.026005872,-0.078307554,0.008888863,-0.040077306,0.07293407,0.055629425,-0.021029908,-0.079442136,-0.09992091,0.018964574,0.03166824,0.02114306,0.048005722,-0.02776568,-0.040901795,0.023207681,-0.071258225,0.0341167,0.02063686,0.046125494,0.045654416,-0.00028079003,-0.02229603,-0.025894273,0.041416656,-0.011076809,-0.013371589,0.013901463,-0.01747143,0.018684126,0.016755072,0.029734572,0.009365475,0.027794437,-0.013308033,-0.009296289,0.009415806,0.025454752,0.026769936,-0.044425048,-0.031223513,0.047535636,0.018134492,-0.012298945,0.02347894,0.0674993,0.012712903,-0.04739298,0.001654516,-0.052809212,-0.03398301,-0.017306753,0.031531554,0.0064585353,0.068073936,0.056526892,0.024414007,-0.0013452573,0.046845734,-0.0034976255,0.0010533503,0.023006015,-0.030166266,-0.0128188105,-0.002149459,0.09987331,0.035470325,0.0039702267,-0.019293208,0.072418705,0.023965647,0.011115407,-0.07759974,-0.012087299,0.023724845,0.021966614,0.014318628,0.0068610683,0.014663031,0.017207075,-0.066226125,0.04407634,-0.030916637,-0.028446546,0.006894894,-0.023948384,-0.09597125,0.008838827,0.0052595492,0.047450937,-0.016040927,-0.009148779,-0.04828985,-0.8085953,0.030797923,-0.017640129,-0.033416092,0.007367806,0.025358472,0.020350253,0.03236831,-0.11780236,-0.0074642114,-0.034426704,-0.012798489,0.05543447,-0.031300034,0.08752889,0.05299726,0.026566401,-0.029990628,0.0118480325,-0.020110846,-0.008991449,-0.03098987,-0.025518158,-0.044476558,0.050196603,0.048014846,-0.021384712,-0.008137519,0.05601379,-0.04039781,-0.022526098,-1.1573616,-0.007828377,-0.059658434,0.08264268,0.037431423,-0.042576447,-0.037707657,0.008040403,0.014350262,0.03193843,-0.0281475,0.048267864,-0.057884607,0.04360149,0.043035105,0.002498379,-0.018099166,-0.017398283,0.064741656,0.024304364,-0.048953943,0.025295196,-0.012543327,0.039588735,0.021910502,-0.035175018,-0.04601313,-0.027762389,0.055432364,-0.0016638017,0.2507425,0.039239973,0.0069689034,0.041571017,-0.03356337,0.06459404,0.052057825,0.014817113,0.042612903,-0.042225182,0.059232954,-0.05815412,0.014124576,-0.034076087,-0.026208369,-0.07996604,-0.009935727,0.044188153,-0.0289468,0.014759723,0.0045775925,0.04102834,-0.035613604,-0.052468907,-0.018408364,-0.017864516,-0.011563219,0.004635725,0.050220754,0.0034237918,0.03784185,-0.038943313,-0.03832476,-1.521674,0.059769567,-0.0757963,0.034113683,0.12667197,-0.0073635415,0.027645685,0.015082812,0.011216877,-0.04738683,-0.0050711203,0.02462142,-0.022537611,-0.020065567,0.06479832,0.020164844,-0.009828095,0.021959,0.072451085,-0.0006104447,-0.015959531,0.029960368,-0.025565967,-0.033233307,-0.030395295,0.008210259,-0.016923314,-1.4972467,-0.0148191955,-0.013931295,-0.018130137,-0.0007578594,-0.03600131,-0.030758327,-0.03569627,0.0041746926,0.050268065,0.026928224,0.00019850582,-0.024440495,0.012818623,-0.03578666,-0.012295838,0.032405324,-0.026010146,0.02810936,-0.040859584,0.06572762,-0.03122129,0.008377939,0.07749554,0.017253501,-0.014051814,0.053280067,0.021820959,0.016758746,-0.0054947077,0.022588246,0.06462262,0.04684498,-0.101942256,0.012565184,-0.05980847,-0.04310607,-0.033641588,-0.020113688,0.07118439,0.036762964,-0.01920066,0.012964045,-0.017345577,0.0146966865,-0.020398792,0.029210657,0.03211142,0.03497489,0.003691338,-0.66188,0.017836994,0.030542847,-0.022031548,0.022686318,-0.08881911,-0.019188428,-0.040556647,-0.017529406,0.0029091332,0.006446083,-0.018382791,-0.008151858,0.07049153,-0.039847553,0.0044605797,-0.013754329,-0.029501814,0.018060733,-0.036142595,0.05421652,0.027813908,0.01762138,0.037966497,0.057060648,-0.102650724,0.055850074,-0.015217492,-0.02076793,-0.053864576,-0.031209117,0.078609265,0.06672127,-0.030229323,0.026899368,0.032069653,-0.019451734,0.09271234,0.027612798,-0.016734213,0.0031619472,0.031996593,-0.013307751,-0.013498915,-0.051520787,-0.039071914,-0.018660527,0.015227425,-0.056774512,0.009174656,0.0033125589,-0.027945593,0.055750232,-0.019817911,0.019210517,0.025317926,-0.021188144,0.033925135,-0.023484673,-0.03228146,0.09488825,0.02663471,-0.0007876456,0.018753573,-0.03840263,-0.52117366,0.044751238,-0.96350616,-0.07790486,-0.034447987,-0.015868647,0.010773338,0.053532653,0.037061878,-0.028016951,-0.02253546,-0.054543547,0.028468091,-0.022290092,0.01023296,-0.016969081,0.04935413,-0.025724247,0.014648959,0.009197516,-0.019418593,-0.061415583,-0.02418773,0.041783787,-0.014288517,-0.0039685667,0.08290986,0.10206509,-0.036147777,-0.0024674293,0.03070825,0.0037314345,0.15138687,-0.03294378,0.015697494,-0.03118248,-0.016702102,-0.022062682,0.0014442126,0.0023098271,-0.035422362,0.028568856,0.06828994,-0.013452695,-0.061186306,-0.07847947,0.01722786,-0.010117716,0.012801248,-0.030559175,0.0054824306,0.03139951,0.023058563,-0.07168531,0.03213487,0.025160171,-0.00071568135,0.04357092,0.037812117,0.052308373,-0.021892965,-0.00187433,0.044522986,0.018749502,0.0015220484,0.03822831,0.022730082,0.020063706,0.026333129,0.0029488187,-0.0349368,0.025426818,-0.021417757,0.0127016045,0.043927114,0.033095576,-0.032216884,0.0735153,0.024641776,0.04950669,-0.033408374,-0.020827472,-0.023991365,0.031438697,-0.04678562,0.024425825,0.03405248,-0.04143224,0.010367146,-0.021136472,-0.018782843,-0.021324826,-0.017099854,-0.033494517,-0.017620679,-0.02125377,0.04569834,0.022832802,-0.016887175,0.033748146,0.017045897,0.018417398,-0.009231492,0.013082603,0.025800485,-0.014853388,0.0153298145,-0.051139325,0.014574053,-0.0181306,-0.001711099,0.035244323,-0.00021366728,0.032059718,-0.0037823734,-0.0051031695,0.012714721,0.019773003,0.027105685,-0.048651114,-0.026744474,0.026248893,-0.01644906,0.023159727,-0.02083731,0.028501568,-0.033967208,0.049843468,0.004615605,0.019253194,0.021046985,-0.012251035,-0.0499941,-0.024469785,0.036291346,-0.03513118,0.0025937057,0.0035762792,0.058736265,0.014172524,-0.042084537,-0.0767156,-0.041561518,-0.017568061,-0.035752427,0.013759569,-0.019152578,0.032241214,-1.2398319,0.0019961102,0.06133897,-0.024111614,0.012516605,0.066820726,0.022154605,0.06736871,-0.008253951,-0.02945978,-0.020960286,0.02187613,-0.89695275,-0.019401157,0.06501133,-0.031448692,-0.055749096,0.013970116,0.056654964,-0.008527305,0.011421808,0.018436138,-0.003234269,0.028316468,-0.03607336,-0.023854168,0.069965765,0.054475516,-0.007899715,-0.029222969,0.06931864,0.06102883,-0.045863338,0.027653543,0.049101803,-0.002578904,-0.0050507993,0.03876377,-0.025944103,0.02469711,-0.0027882867,-0.05890653,-0.110434614,-0.0250782,-0.0066070524,0.036195762,0.009291941,0.011737418,-0.0344677,0.019599132,-0.026843455,-0.0098283645,-0.09131728,-0.013498573,0.009699733,0.06637338,0.08054365,-0.023045966,-0.024686214,-0.025262196,-0.027561646,-0.004768283,0.027329668,-0.026875403,0.024614787,-0.056131784,-0.032059547,-0.028161738,-0.028442703,0.0061789593,-0.027161907,0.04187757,-0.030902812,0.01952624,-0.007824946,0.024785455,-0.005822557,-0.04899454,0.02164588,-0.0049696984,0.008621246,0.008657858,0.003756933,-0.05591103,-0.017054921,-0.006301577,-0.012242818,0.04206539,-0.026174862,0.012586705,0.007838329,-0.011533424,-0.026808152,-0.033935644,-0.03390407,0.008273898,0.048496574,0.04570966,-0.06124627,0.031459194,-0.038776565,-0.07407137,-0.036252543,0.00023051538,-0.018523581,0.039505232,0.08659033,0.035023972,-0.030072164,-0.072570585,-0.024811381,-0.024539158,0.025931016,0.046189684,-0.033185348,0.01898495,-0.024026247,0.029690053,-0.02104522,-0.014267361,-0.026054526
SEQUENCE_4,-0.05191431,-0.0136502795,-0.019394133,0.025225103,-0.01557275,-0.011941858,0.018328326,-0.032711875,0.062454022,0.006356336,0.048932478,-0.025115337,0.0323051,0.024600971,0.028556997,-1.1714629,-0.024051528,-0.03172448,-0.00059466297,0.0633587,0.051707067,0.045566894,0.03471954,-0.028380733,-0.029213274,-0.039603487,-0.040513072,0.04715373,0.023887232,0.00807007,-0.0088837,-0.005960321,0.09137854,-0.013616426,0.031990867,-0.020545451,0.021384053,-0.037438944,0.032455698,0.019643694,0.055221353,-0.059967645,0.058011457,0.03764064,0.04277967,0.005102636,0.04228865,0.029451348,-0.031163968,0.022117542,-0.011209333,0.045082502,0.04403648,-0.032072112,0.039745834,0.0132474825,-0.013257928,0.021305043,-0.018341193,-0.032377858,-0.027187524,0.05858157,-0.012455353,0.049910422,-0.02959823,0.040810514,-0.10988731,0.010220326,-0.01954291,-0.011631903,0.04731579,0.029007025,0.017861295,0.06190146,-0.035226606,-0.1676377,0.02258147,-0.009467956,-0.032134626,0.111791424,0.032243907,-0.0524114,-1.4928945,-0.026218127,-0.021714296,-0.039980903,-0.008678341,0.052102096,0.16437396,0.04612364,-0.028380718,0.048911065,0.034351826,0.0036331145,-0.0020191288,0.07018524,-0.011405444,-0.0068943016,-0.053556167,0.025183743,0.011928601,0.025990378,0.022344079,0.040323466,0.016765881,0.051700678,-0.029709566,-0.02263331,0.051311854,0.038996786,0.02335876,0.009726007,-0.035376765,0.017408852,-0.003127912,-0.02930229,0.013671392,0.030997515,0.03280317,0.020772327,0.024367802,0.015363735,-0.034744352,-0.07404366,-0.009777813,-0.03300001,-0.04938136,0.03746462,0.030287774,-0.02651448,-0.059205823,0.05706773,0.00021553459,0.010176125,-0.041124977,-0.030872343,0.022307139,0.010423709,0.02788939,0.02778683,0.02858859,0.0010533062,-0.026747506,-0.031397898,-0.053424,0.0061737364,-0.010336666,-0.025537223,0.006638008,-0.033492193,-0.023483299,-0.028907673,-0.004638644,0.078979455,-0.005849524,-0.027441284,0.029999675,0.025098171,-0.00620229,0.016943263,-0.033961628,0.061372574,-0.0399269,0.030747905,-0.046750955,-0.044048864,-0.034990944,-0.007412916,0.16518572,-0.021992117,-0.027716493,0.028786613,0.027348096,0.023514891,0.037479915,0.014830367,-0.043781962,-0.05175521,-0.051788937,-0.03249648,0.018326495,0.025960166,0.040524036,-0.025207385,0.023690822,-0.0258387,-0.018507456,-0.032322034,-0.008887404,-0.062129933,-0.029046508,0.01522385,0.012168009,0.05607374,0.04194633,-0.0772966,0.011965582,-0.04389711,0.051814027,0.014974566,-0.008040144,0.03671475,-0.04705982,0.045416225,0.014241273,0.011901431,-0.026428089,0.048347715,-0.006917765,-0.00061309803,-0.03795156,-0.03280966,-0.024234712,0.016874973,0.02416999,0.022868115,0.0014476385,0.000526379,-0.03551417,-0.023088824,-0.042532083,0.05391982,-0.020357253,-0.00084821926,-0.036413044,-0.013031948,0.05136531,0.073538795,0.0049549425,0.032448046,0.024028564,0.011193805,-0.035018776,0.011821593,-0.013083591,-0.008522569,-0.060408324,-0.036069524,0.012436361,-0.014975063,0.08335798,0.012581226,-0.018000772,-0.03589403,0.022239357,0.4452878,0.0019779494,0.037725415,-0.022234961,-0.023915293,-0.07911794,-0.021422345,0.025273604,0.009031787,-0.015245752,-0.0028561503,-0.02852694,-0.04071381,0.01266314,-0.05967503,0.03735942,-0.034932673,-0.028872237,-0.036357183,0.034452196,-0.03702547,0.0440655,-0.009138616,-0.023224909,-0.024753163,-0.06412612,0.001472303,-0.027332045,-0.044664297,-0.034605965,0.018512685,0.034991257,0.06277259,-0.016265921,0.045346882,-0.041638985,-0.018383127,0.03183686,-0.06901771,0.027504813,-0.002871003,0.030721085,-0.018770933,0.06452587,0.031130794,0.025154568,-0.00015300885,0.02223008,0.025256397,0.05362783,-0.048245084,0.028917063,0.024356827,0.020386403,-0.012613383,0.030024627,0.027171224,0.015423943,0.04287603,-0.0007797945,-0.003922555,0.027437378,0.025940612,0.039208803,0.025606228,0.012820542,-0.025205066,0.031418633,0.045055766,-0.038066223,0.07845037,-0.010668747,-0.011180942,0.031753156,0.09451405,-0.021408817,-0.019477494,-0.050051406,-0.013741676,0.008680153,-0.015117867,0.012109528,-0.020151474,0.026970234,-0.014860493,0.028695375,0.014396254,-0.019053536,-0.010725571,-0.023972541,0.046846237,0.026952783,0.025646197,-0.032201145,-0.004043296,-0.013200445,-0.014772045,-0.011447307,0.024515249,0.025014281,0.034391508,-0.041403696,-0.02866321,0.02658695,-0.043004178,-0.026080493,-1.9959316,-0.026969677,0.09443765,0.029853856,-0.04477614,0.036400955,0.012585919,0.027947383,-0.004768125,0.04915132,0.057370733,-0.03813149,0.003798116,0.034197483,0.057241794,-0.019333404,-0.04435701,-0.046770412,0.0041209767,0.02377297,0.18583126,-0.04572704,0.024461856,-0.05132252,0.02757335,-0.016491495,-0.028013363,0.04669634,-0.020426277,0.06282029,-0.038828176,-0.010239947,-0.038813837,0.021958482,0.04314457,-0.019392826,-0.022996966,0.024193618,-1.3547177,0.0293236,0.008788338,0.017144173,0.054876633,-0.05910119,-0.015480937,-0.027241282,0.038547702,0.02780493,-0.027263312,-0.014971759,0.040860888,-0.0528585,0.031068716,-0.03928979,0.06769362,-0.03345103,-0.015214662,-0.06311981,0.017787036,0.06264091,-0.022420723,-0.030728832,0.027335301,0.04239721,-0.033653814,0.019003063,-0.023663642,-0.0039964127,0.018382387,0.0433357,-0.031419184,-0.06555227,-0.039709773,0.033439193,0.036880758,0.019860681,0.033245467,0.025136767,3.0745306,0.05058439,-0.010807501,0.034287885,0.028128576,-0.06672449,0.029201003,-0.010770289,-0.004438469,-0.014054383,-0.041058637,-0.05312979,0.056142688,2.2503755,-0.06877229,0.050284505,-0.04493429,0.03070045,0.03392737,0.039608434,-0.025668085,-0.02673088,-0.01886332,0.038286306,0.041553568,0.03095722,0.015826717,0.013418254,-0.032767955,0.03446889,-0.022780567,0.0020493905,0.030818962,-0.0010904167,-0.026770258,-0.028767616,-0.031970046,0.04689274,0.02144729,0.012895252,0.030318946,-0.048722215,0.03259263,-0.023448503,-0.06002646,-0.016894456,-0.06360883,-0.012936415,5.7710786,0.025493992,-0.03152655,0.004452601,0.029522302,0.020611394,-0.015534772,-0.018779818,-0.056001477,0.012201275,-0.01575551,0.046120886,0.0074800886,0.039745487,-0.043304823,0.057518832,0.025137592,-0.04147093,0.016654473,0.035114292,0.036416937,-0.032926127,0.04187341,-0.03175866,0.012489158,-0.019730592,-0.012919646,-0.040314343,0.021464493,0.024375523,-0.0019351831,0.028248118,0.032623608,0.03253312,-0.02425543,0.013921261,0.036676574,0.022861194,-0.06497893,0.0056373347,0.04907966,-0.038609695,-0.18156335,-0.017686788,-0.012124926,0.036801152,-0.021503717,-0.036578696,0.0060763336,-0.026808329,0.03742901,-0.013126136,-0.023411386,0.01773342,0.02036183,-0.017892946,-0.022767685,-0.023709195,-0.021904422,-0.014444001,-0.031800084,-0.037926383,-0.023102459,-0.04037776,-0.043574445,-0.0037568882,0.049745794,0.052818052,-0.043891795,0.038363226,0.0069373017,-0.02447128,-1.6400526,0.004322531,-0.008205347,-0.06259975,-0.019072492,0.06913213,-0.04397034,0.011450115,0.022405852,0.0040715546,-0.04265149,-0.04302615,0.014658326,0.026923595,-0.075759396,-0.016799845,-0.031710092,0.025912456,0.05030944,-0.07703324,-0.0055522714,-0.042048033,0.015022337,-0.03423176,-0.037339304,-0.03762877,0.037317157,-0.047794048,-0.018572917,0.023070533,-0.004660271,-0.024251796,0.008746268,0.054476622,0.05397733,0.03311348,-0.0316258,0.04019457,0.0373506,0.035811022,0.057762686,0.0045800144,0.01425827,-0.9807935,0.025244478,0.04119197,0.009049029,-0.026138904,-0.03126516,-0.011278344,-1.100752,0.03852528,-0.008812642,0.039664175,-0.035672724,-0.024918616,0.014308821,0.064882174,0.045022704,-0.051631328,0.25045538,-0.017082946,-0.060053416,0.03039535,-0.020412866,-0.038755324,0.02929826,-0.002326684,-0.03419666,0.0127812885,0.026754338,0.034701437,0.030227486,-0.03143008,0.0077909343,-0.026952833,0.040898453,-0.043222144,0.02625147,-1.842971,-0.008499943,0.024517015,0.035664923,-0.03146038,-0.05002627,-0.0011007581,0.008726503,-0.021949695,-1.4328045,-0.035833992,-0.014873736,-0.009419787,0.02961529,0.03657493,0.014710806,-0.010225352,-0.022352502,0.039478496,-0.0014953264,0.014325935,-0.02004713,0.037710197,-0.060399182,-0.010180297,-0.0617998,-0.011596747,0.015286816,-0.043560997,-0.002744191,-0.011840719,-0.07279728,-0.02424286,-0.016647287,-0.028404126,-0.027841616,0.026984747,0.026808258,-0.029113341,0.019062841,-0.045068715,0.07074645,-0.016265243,0.03389439,0.024611143,0.021946566,-0.04899718,-0.014697342,0.0343811,-0.008187615,-0.02756836,0.043350324,-0.03543083,-0.019769048,-0.013278455,0.03727811,-0.023081139,0.015128002,0.0102376975,-0.025398001,-0.04422085,1.1674136,-0.053455934,0.0334235,0.041953906,-0.018229445,-0.029056337,0.048623253,-0.0456765,-0.028509773,0.032915533,-0.039678503,0.08568627,0.029370025,-0.030292025,0.003310936,-0.043014847,0.032205287,0.018100576,0.03876987,0.010706177,0.03427526,-0.016079783,0.03952254,0.023073832,0.041475363,-0.03881766,0.027664024,0.018361783,-0.031735968,0.03671971,0.035714954,-0.00059036235,-0.007314396,-0.025913678,-0.019913051,-0.0431321,0.023087349,0.05953774,-0.027674403,-0.016482033,0.04927397,0.033949584,-0.0036094114,-0.017798968,0.0039970535,-0.030303024,-0.035706513,-0.021686032,-0.04722835,-0.0047060763,0.09103954,0.039632328,0.021431446,-0.026798557,-0.022823341,-0.03264972,-0.017021243,-0.10504231,0.048115604,0.030013954,0.01961494,0.038573842,-0.021958428,0.031920433,0.016817965,0.013130009,-0.020343645,-0.021265386,0.025087647,0.032287054,-0.045769908,0.032703888,0.032579653,0.05218017,-0.021583885,-0.029307177,-0.038176235,-0.0033992836,-0.020646885,-0.047830664,0.00085272687,-0.008704884,-0.013644888,0.025306545,0.03643616,-0.03396619,-0.39601022,-0.019843075,0.027003653,0.029423803,-0.039284866,-0.0042152554,0.044497862,-0.02445748,0.007673883,-0.037741806,-0.036805898,-0.0016063899,0.0314166,-0.004339721,0.021240965,-0.0079585435,0.036623314,0.022752998,-0.032594517,0.045567874,0.010502754,0.03814742,-0.04550065,0.053043175,0.025605317,-0.03731165,0.027480006,0.042298313,-0.014765533,0.005406576,0.04280993,-0.014201963,-0.02567679,-0.003936044,0.02216305,0.04066898,0.005405764,0.027305195,-0.016198173,-0.034687854,-0.048532553,0.014515352,-0.083919145,0.0480055,0.037643477,0.023627281,0.009738663,-0.042415682,0.038612135,0.024387488,-0.02206093,0.011431824,-0.06780299,-0.0025007725,0.032836042,0.07409447,0.028044831,0.030720277,-0.017705373,-0.06006994,-0.026316486,-0.01913915,0.032658193,-0.012924905,-0.040002145,-0.04503165,0.018360386,0.031814136,-0.054962378,-0.03403622,-0.034117065,0.022127796,-0.022956409,0.038363274,0.051165346,0.024982622,-0.05307416,-0.027660841,-0.025926443,0.027181149,-0.032704033,-0.017116275,-0.021249583,-0.02481409,0.023041861,0.035579436,0.034255363,-0.00024022954,-0.019867685,0.017991854,-0.03089279,-0.03234903,-0.03541311,0.031585824,-0.012641034,0.02383675,0.04312697,-0.027430376,0.011916218,0.09757115,-0.07013739,-0.045545913,0.04569727,0.035762932,0.021985644,0.031115465,-0.0022152672,0.046696644,-0.010731407,-0.045222346,-1.176137,0.0037693768,-0.012853477,-0.014398796,0.030288229,0.032924373,-0.02303056,0.019143034,-0.017379899,-0.0076798415,-0.046065792,0.94957423,0.045687314,-0.017578132,0.030834237,-0.00523434,-0.03227185,0.040793307,-0.00837371,0.032013524,0.031907633,0.008886675,-0.00042122044,0.02494134,0.01711474,0.014238773,-0.06604547,0.0023877998,0.033558354,0.053473584,-0.027960077,0.01264572,-0.031466186,0.05383877,0.046780527,-0.013674356,0.02138852,-0.023082232,0.0026441943,-0.0754779,-0.020656323,0.023653049,-0.014045263,0.01785183,0.023407046,0.043010212,-0.0099881645,-0.0046554534,-0.039204605,-0.028334143,0.036308464,0.01659844,-0.04913537,-0.009690637,2.08618,-0.016445424,0.03752417,0.052048184,-0.04066466,-0.07949307,-0.0019196575,0.054266434,-0.031531114,0.059083186,0.00057604385,-6.586127e-05,0.027549747,0.018545376,0.027991947,-0.050299503,-0.007526242,-0.012739636,0.015232896,-0.03656229,-0.003158704,0.03218746,-0.030441027,-0.024437658,0.0010419544,0.06796041,0.01961122,-0.02947765,0.022379167,0.051723115,-0.035158053,0.04858928,0.04727235,0.03717143,0.027328094,0.053908035,0.054312952,0.019816749,0.026214235,0.031799033,-0.024626387,-0.022191433,0.036751032,0.014572575,-0.016447589,-0.028150879,-0.041346252,0.022320118,-0.024542686,0.017373934,-0.023237644,-0.04893674,-0.02177462,0.02705965,0.03356951,-0.03651748,0.061565943,0.046399772,-0.053613853,0.020078735,0.029908828,-0.013679933,0.024071302,-0.028294155,-0.095084056,-0.007767014,-0.047692638,0.014903799,0.026521944,0.011247463,-0.007624193,-0.03694211,-1.7317489,-0.045708694,-0.027244378,0.008525187,0.037037034,0.033710085,0.021498509,0.017845104,0.071348086,0.02941366,0.015491694,-0.03136878,-0.03179272,0.023188014,-0.029679358,-0.0016174088,-0.033341702,-0.0028547945,0.037322514,-0.050158266,0.04780575,0.029294657,-0.034730352,-0.02875368,-0.07159519,-0.021093266,-0.023858184,-0.053257752,0.045453396,0.04784824,-0.024547318,0.053949676,0.0374601,-0.02477641,0.014509163,-0.02810506,-0.040183354,-0.030892318,-0.0053735897,0.023225378,-0.07519455,-0.040031534,-0.050322566,0.03881232,-0.04356834,0.014954103,0.017702851,0.05268791,0.030269478,-0.04921524,0.037916124,0.022418406,-0.042589046,0.024831494,0.0066463538,-0.0054618753,0.039253596,-0.0001562601,-0.03445833,0.0223701,-0.0025821151,0.023545424,-0.012909206,0.028837577,0.039098665,0.044504702,0.053639077,0.056155175,0.023405086,-0.044272736,0.011187251,0.038525637,-0.025607545,0.07473485,-0.0253515,0.03669168,0.03579695,0.035439167,0.047383446,-0.022461541,-0.006348118,0.0029468858,-0.02468091,0.014365663,-0.008856653,0.025437674,-0.026064353,0.023120621,0.03302193,0.025560245,-0.035142202,0.021785542,0.013313931,-0.019996516,0.005629707,0.00083984435,-0.012016354,0.033267513,-0.0057874843,-0.027975574,-0.046964254,-1.1622603,-0.04171737,-0.021968536,-0.034514416,-0.03227006,0.008852725,-0.002101393,-0.04133516,-0.029690756,0.027559938,0.033270232,-0.021014158,0.008978108,-0.046410583,-0.025339197,-0.0075104265,-0.0349524,-0.030356823,-0.03435585,0.03499315,0.05260932,0.0026913378,0.031036638,0.009890723,-0.016761046,-0.007315243,0.053562466,0.01376553,0.03403251,0.031829037,-0.041957274,0.018570766,-0.0373253,0.023068495,-0.008417255,-0.03340307,-0.031812556,0.014454706,0.039509904,-0.024908543,-0.030003596,0.028411772,-0.0046960535,0.011693862,0.040893774,0.044189658,-0.044025313,0.069910936,-0.028158812,0.0032124291,-0.05104602,0.021463258,-0.03975449,-0.037644263,-0.022183506,-0.01660689,0.026911069,0.0058308123,0.0059857117,0.032397516,0.02251247,-0.017378915,-0.074204005,0.010740939,-0.013056558,-0.031859957,-0.0295756,0.053890385,0.032101512,-0.04948814,-0.0065940786,-0.007907528,0.013185218,0.04756122,-0.0891266,0.026581353,0.021646664,-0.0013432615,-0.026991481,0.03330993,-0.021947201,0.012986321,-0.022489488,0.053954702,0.016222578,-0.051985197,0.023087764,0.0055959597,-0.024358382,-0.037802625,-0.07600095,0.053338457,0.036859572,0.016058076,0.032552723,0.034398504,-0.03343108,0.035544146,-0.049174517,-0.01681423,0.012685499,-0.03390281,-0.061637938,0.0293418,0.04885591,0.02864431,-0.030647187,-0.037364706,-0.018358197,-0.016610442,0.023192603,-0.03583273,-0.03451508,-0.04873918,0.12762262,0.040190715,0.02344961,0.029964978,0.026841162,-0.02760974,-0.04234066,-0.018793693,0.03554808,-0.027752738,0.043486174,-0.019222867,-0.03278889,-0.03221731,-0.04187384,0.032764696,-0.0294683,-0.027246071,0.039317526,0.00035686046,0.05970943,-0.015448522,0.040349625,0.017375292,-0.033592768,-0.03224158,-0.031073507,0.01232286,0.051692057,-0.035170674,-0.046245717,-0.04259706,-0.014037144,0.00051131874,0.029696077,0.048043657,-0.026297294,-0.016747396,0.05723436,0.026837219,-0.0392064,0.028708838,0.04279618,0.023695711,-0.03470413,0.033689566,0.046078335,-0.026668107,-0.036366884,0.027305461,-0.01582109,-0.03393923,0.032284036,0.004709292,-0.023099393,-0.024479736,0.018991385,-0.04140504,-0.0480038,0.07765919,0.016106408,-0.011585053,-0.0050845826,-0.05593261,-0.030261837,0.038774386,0.025309917,0.025598548,0.018700302,-0.119122595,0.03906383,0.03630529,0.037105076,-0.0020233972,0.028566841,0.038272902,-0.034067772,-0.022778474,-0.05254448,-0.03377017,-0.008893467,-0.04211403,-0.038160335,0.03484791,0.021369383,-0.026248675,0.012506745,0.021253277,-0.011152087,-0.06763287,0.024124933,-0.082371734,-0.021037698,-0.022877,-0.007252262,-0.0060212426,-0.022412237,-0.03518731,0.03743622,0.02889401,-0.04769143,0.044121064,-0.026307188,0.008169025,0.054157227,0.032219306,-0.013084026,-0.029022561,0.026822219,0.011345395,-0.00087032,-0.032577768,-0.014280891,-0.034955576,-0.016571252,-0.031253133,0.04352819,0.018449686,0.007049258,0.050415553,-0.022700746,0.05121156,-0.10724906,0.046635497,-0.0139799835,-0.030981984,0.027569626,0.0035978025,-0.044633754,0.82850325,-0.0061472217,0.050230905,0.09278429,-0.03523814,0.04329233,-0.0699796,0.0059145866,0.042101063,-0.0001605628,0.028957507,-0.017221432,-0.034849714,-0.15505585,0.03048889,0.01763914,-0.017585717,-0.035495967,-0.03258267,-0.03916856,-0.09908205,-0.060990676,0.022875829,-0.03968423,0.044729616,-0.005567193,0.02673229,0.0005776305,0.008483314,-0.028831251,-0.0059280507,-0.023688734,-0.025864806,-0.03355662,-0.018071681,-0.0125086885,-0.008360032,0.031425502,0.02086585,0.03157077,0.0492583,0.044859424,0.02886638,-0.072928995,-0.066764474,-0.0320775,0.03915569,-0.029670117,0.003752959,-0.027526261,-0.00029715523,0.013812285,-0.0425404,-0.015752899,0.045328565,0.03737196,-0.028867748,0.06701894,-0.03180595,-0.024642132,-0.014380376,-0.02129338,-0.021246344,0.045076318,0.031851083,-0.01574784,0.036597118,-0.0039577717,0.0052760495,0.007333069,0.023661539,-0.036102273,-0.07523334,0.037197128,0.053452455,-0.036530796,-0.04371375,0.011716321,0.0136287045,-0.039571807,0.024822142,0.001503325,-0.046143886,0.061593264,0.0039147697,-0.047861956,-0.03200003,0.0365834,0.014492716,-0.059888132,0.049173012,0.011633084,-0.031188168,-0.030417973,0.084059395,0.017040106,-0.03365641,-0.030155964,0.029309679,-0.012631661,-0.00023457967,0.002245726,0.06353876,0.03224829,-0.056552265,0.01596354,-0.026438668,0.03206742,0.038776107,0.041682623,-0.08032404,-0.027218457,-0.0054618623,-0.03261164,0.00083948765,-0.047975942,0.022128595,0.030972684,-0.08769815,0.026962042,0.0756896,-0.03709366,-0.041108407,0.030842844,0.05406753,0.06818107,0.01158751,-0.03778122,-0.007634661,0.006735664,-0.041229594,-0.033112794,-0.041920975,0.049366295,0.053292952,0.0013582753,-0.10367503,-0.031940203,-0.02407948,0.038469367,-0.051347055,0.022326373,-0.020971477,0.01940986,0.01930673,-0.019843707,0.02602175,0.0023069913,-0.002719502,0.021748967,-0.024584644,-0.026000991,0.01336761,0.035205793,-0.043169197,0.01117016,-0.000551376,-0.02941495,-0.022805443,0.06107301,0.03267556,0.027716085,0.10552558,0.015806839,0.03536522,-0.033573076,0.07846897,-0.047008928,-0.12822612,0.005976813,0.34356377,0.05198338,-0.014405638,-0.00245546,-0.0150176585,-0.039421037,0.020775001,-0.035078667,0.02135529,0.0029728708,0.0036325774,0.030316086,0.04544179,0.012019896,-0.03877914,0.06755482,-0.009875241,-0.029961856,-0.019675659,-0.025799705,-0.017974108,-0.03783654,-0.011374256,0.0051781144,-0.009815674,-0.03263108,0.037827305,-0.020542165,-0.06043475,-0.045515604,-0.04317843,-0.012610861,0.0067023765,-0.045798473,-0.030082557,0.003011505,0.045402322,-0.034981456,0.042034492,0.061773203,-0.057478458,0.010655717,-0.06941087,0.015237587,-1.2939101,-0.035148375,-0.0129414555,0.07471659,0.116943575,-0.018927475,-0.000832526,0.028839737,0.055696536,0.027158383,-0.0096128825,0.033083774,-0.02786732,0.042578883,0.021305146,-0.0055284826,0.054769456,-0.0015022932,-0.028125364,0.011563767,-0.038015127,0.029592238,0.037049167,-0.014946467,0.054131463,0.03765646,-0.038910642,0.050916526,0.016609967,0.009509395,-0.0015218321,-0.023550857,0.017175604,-0.024218693,0.029980343,0.032179564,0.005352917,-0.088810906,-0.022173394,-0.025447804,0.09659918,0.026256628,0.031898394,-0.0044766995,0.040980406,-0.05640719,0.00200621,0.04088115,-0.026192171,-0.02424391,0.12207613,-0.06775382,0.007333398,0.017348263,-0.05271407,0.102039725,-0.0015142914,0.04516097,0.035437174,-0.030343179,0.0506816,-0.023992851,-0.0100773275,-0.025581785,0.021017633,0.030174732,0.019767225,-0.045107406,-0.022941772,0.058424424,0.062194683,-0.024180787,-0.030340835,-0.0057206587,-0.06774714,0.028709915,0.072527975,0.010234213,-0.027390443,-0.06967416,-0.038522474,0.009354027,-0.7497965,0.002864324,0.04398442,0.02907454,0.049852625,-0.0859779,0.032320626,-0.04061511,-0.0003329832,-0.044442333,-0.02144837,-0.02230326,0.038890585,0.023293402,-0.011321301,0.0272248,0.0004047267,-0.0111115165,-0.9732383,-0.1067469,0.05509539,-0.06393191,-0.0015733596,-0.021373045,0.028654508,0.03084352,-0.031196583,-0.022833858,0.026628664,0.029428303,0.004583072,0.035428043,0.011869891,0.030935816,0.07293469,-0.034820642,-0.035082232,-0.006475765,-0.032323483,-0.03423428,-0.021221869,0.031153899,-0.04890471,-0.03697215,-0.09600161,-0.0661608,-0.035757754,0.05105398,-0.0481433,-0.08256082,0.032114483,-0.040647797,0.07159831,0.021720631,0.02767994,-0.007521444,-0.04169993,-0.117988996,1.4692842,0.022379229,-0.035385042,0.037302516,0.035545193,-0.0014500078,-0.008191457,-0.055624686,0.008673616,0.051465526,-0.021039736,-0.017600076,-0.016485952,-1.3532882,0.04322636,-0.0032521114,0.019074574,0.008501895,0.030956978,-0.0055532865,-0.12315805,-0.032468792,0.002743682,-0.03298304,-0.056741524,-0.041947346,0.014803525,0.048137926,-0.030846877,-0.014893745,0.024131602,0.04776699,-0.00046508852,0.04868799,0.0013469032,0.022812976,-0.029382885,0.006474509,0.044416636,-0.050313823,-0.015200924,0.042924616,-0.070256874,-0.009298094,0.008505626,-0.043381296,0.016514778,-0.031234168,1.5393703,0.062543996,0.046088364,-0.007759842,0.014320368,0.018805254,-0.07933267,-0.021603948,-0.027493568,0.035501458,-0.009367862,0.048970003,0.019418824,-0.050981645,-0.028936036,0.03153034,0.03922674,0.015557325,-0.007042454,0.014610471,-0.03468366,0.028508589,-0.021043606,-0.025050279,-0.026518103,-0.03062911,-0.022238743,0.052763395,0.040237214,0.026446614,0.057549417,0.036023255,0.056045316,0.04935246,0.019528216,0.01060522,-0.04843056,0.011193514,-0.031537414,-0.010979599,0.063357875,-0.030545933,0.22786266,-0.01957241,0.0035073068,0.0063265013,0.011850277,0.043212116,-0.024063317,0.04614935,0.018971348,0.057954207,0.031992372,-0.051423095,-0.03818995,-0.05542174,-0.04964313,0.015847322,-0.11924887,0.07714961,-0.104835264,0.019948514,0.024684839,-0.012713663,-0.021166056,-0.024293482,-0.027974673,-0.013619907,0.036433622,0.048937175,0.0031960262,-0.027404895,-0.13042095,-0.02864787,-0.021179752,0.051214993,0.024403483,0.003908584,-0.012513949,0.059517954,0.049567755,-0.019055594,-0.044291444,0.018101607,-0.03176452,0.021972116,0.04095916,0.04749584,0.03240298,0.029068321,-0.015914544,0.094551034,-0.01913165,-0.027730944,0.033359002,0.056746885,0.025476627,0.052258622,-0.020727087,-0.06432262,-0.0005511516,0.028934482,0.03212238,-0.05029756,-0.020598711,-0.009570639,0.05136769,0.0039157197,0.054279312,0.010569447,0.041426893,0.11867299,-0.068661295,-0.09556051,0.08980502,0.0026698872,-0.009583678,-0.056821156,0.041960917,-0.011636594,-0.10291037,0.029530214,-0.033042222,-0.034199204,0.021680847,0.021324169,-0.00937429,-0.016523639,-0.098535426,0.018836591,0.052616995,0.052558877,-0.04157046,0.03797578,0.046746273,-0.002676059,0.017857274,-0.0066427877,0.18553455,-0.029674513,0.03635545,0.015945682,0.00045350892,0.034801815,-0.02292612,0.00906315,0.002100684,-0.02058484,0.014452628,0.04391231,0.04711642,-0.97062397,-0.5115531,-0.018486168,0.012999356,-1.346478,0.022261769,5.448697,0.016550876,-0.0367404,-0.03482515,-0.0020897025,-0.015424021,-0.030467803,-0.0051408648,0.04119806,0.02685706,-0.02542349,0.005493962,0.036449745,0.0011279909,0.030551987,-0.042860694,0.01929173,-0.021511162,-0.0019140868,0.035234023,0.6296913,0.04082193,0.022296524,0.047602147,0.02859474,-0.009076623,-0.06210331,-0.028265074,0.07718401,-0.021277498,-0.018066641,-0.09438642,-0.03130732,0.015795747,0.094100945,-0.041011535,0.0209013,-0.02536306,-0.032628648,0.03379234,0.037770867,0.0131807765,-0.05533317,-0.031200249,0.01639115,-0.028662024,-0.045283765,0.00075689703,0.02867448,-0.06750448,0.008466417,-0.067653805,0.06732043,0.058056947,-0.024446797,-0.08263721,-0.12951908,0.017863581,0.03953456,0.022551142,0.06359172,-0.047648516,-0.038771946,0.035678092,-0.07821596,0.035592265,0.018888626,0.06990804,0.01826417,-0.0033235624,-0.023583885,-0.02739089,0.04046875,-0.014829196,-0.021123938,-0.004921053,-0.022934891,0.019911977,0.016974919,0.029097382,0.008352789,0.029983025,-0.008691479,-0.034213815,0.007912661,0.031618334,0.030785723,-0.04683295,-0.017793976,0.05958323,0.021293806,-0.0146039,0.010720981,0.082306415,0.014520773,-0.029489726,0.007479176,-0.022251748,-0.044245623,-0.020694867,0.03812608,0.029309027,0.068652146,0.05350031,0.030324742,-0.002641947,0.06818411,-0.0026756134,0.00944827,0.029629817,-0.03845535,-0.01978761,0.07801628,0.10275279,0.03674236,0.017002458,-0.029991524,0.079760104,0.017478604,0.015425247,0.003463744,-0.012186321,0.03168844,0.037031136,0.020159887,0.018558681,0.018922351,0.0010848417,-0.078511626,0.05233845,-0.044588994,-0.041900568,0.0074800444,-0.029667245,